{"learner":{"attributes":{"best_iteration":"99","best_ntree_limit":"100","scikit_learn":"{\"use_label_encoder\": false, \"n_estimators\": 100, \"objective\": \"binary:logistic\", \"max_depth\": 9, \"max_leaves\": null, \"max_bin\": null, \"grow_policy\": null, \"learning_rate\": null, \"verbosity\": null, \"booster\": null, \"tree_method\": null, \"gamma\": 0.0, \"min_child_weight\": 1, \"max_delta_step\": null, \"subsample\": null, \"sampling_method\": null, \"colsample_bytree\": null, \"colsample_bylevel\": null, \"colsample_bynode\": null, \"reg_alpha\": 1e-05, \"reg_lambda\": null, \"scale_pos_weight\": null, \"base_score\": null, \"missing\": NaN, \"num_parallel_tree\": null, \"random_state\": null, \"n_jobs\": null, \"monotone_constraints\": null, \"interaction_constraints\": null, \"importance_type\": null, \"gpu_id\": null, \"validate_parameters\": null, \"predictor\": null, \"enable_categorical\": false, \"max_cat_to_onehot\": null, \"eval_metric\": null, \"early_stopping_rounds\": null, \"callbacks\": null, \"kwargs\": {\"seed\": 42}, \"classes_\": [0, 1], \"n_classes_\": 2, \"_estimator_type\": \"classifier\"}"},"feature_names":["Attr21","Attr13","Attr27","Attr34","Attr24","Attr35","Attr51","Attr6","Attr56","Attr49","Attr40","Attr55","Attr50","Attr58","Attr43"],"feature_types":["float","float","float","float","float","float","float","float","float","float","float","float","float","float","float"],"gradient_booster":{"model":{"gbtree_model_param":{"num_parallel_tree":"1","num_trees":"100","size_leaf_vector":"0"},"tree_info":[0,0,0,0,0,0,0,0,0,0,0,0,0,0,0,0,0,0,0,0,0,0,0,0,0,0,0,0,0,0,0,0,0,0,0,0,0,0,0,0,0,0,0,0,0,0,0,0,0,0,0,0,0,0,0,0,0,0,0,0,0,0,0,0,0,0,0,0,0,0,0,0,0,0,0,0,0,0,0,0,0,0,0,0,0,0,0,0,0,0,0,0,0,0,0,0,0,0,0,0],"trees":[{"base_weights":[-0E0,1.3368983E0,-7.5501865E-1,1.4180381E0,-3.9999974E-1,1.053316E0,-1.0402961E0,1.9779614E0,1.240069E0,-1.1648347E0,8.275855E-1,1.6067587E0,-1.934426E0,1.7668711E0,-1.2408631E0,4.99995E-1,1.9833795E0,1.8252729E0,1.0136986E0,1.2727237E0,-1.428571E0,-1.3846123E0,1.346938E0,1.8637992E0,6.1855257E-2,1.9580418E0,3.6363545E-1,-6.217228E-1,-1.576087E0,1.8858954E0,-1.4285686E0,-1.5692304E0,1.227302E0,-1.6923072E0,1.199996E0,-4.99995E-1,1.5555546E0,-9.99995E-1,1.8916967E0,-1.733332E0,8.1690085E-1,1.971631E0,4.99995E-1,-1.466664E0,1.1515139E0,-1.3391812E0,-8.676785E-2,-1.2049689E0,-1.7537841E0,6.666648E-1,1.9153094E0,-1.8991593E0,1.466664E0,1.3531444E0,-4.727269E-1,-1.8378373E0,4.99995E-1,1.6842095E0,5.454509E-1,1.9461538E0,9.4736737E-1,-1.8181697E-1,1.5238086E0,-4.99995E-1,1.4482745E0,-1.5474452E0,-4.85714E-1,-2.9808912E-1,1.0921983E0,-1.459893E0,-3.2432413E-1,-1.4515648E0,-1.9026616E0,-3.99996E-1,1.1999973E0,1.9461279E0,8.3333164E-1,-1.9304345E0,-4.99995E-1,-1.5199984E0,1.3997195E0,-1.3571421E0,4.137924E-1,-4.99995E-1,-1.8857137E0,1.7647047E0,4.99995E-1,1.8181455E-1,1.9688108E0,1.4838697E0,-9.090873E-1,1.199996E0,-6.666652E-1,1.8181455E-1,1.7714274E0,2.2221778E-1,1.666665E0,-1.6172607E0,7.3684E-1,4.0963808E-1,-1.6721305E0,-1.3459117E0,-3.1745967E-2,-3.3333167E-1,1.3388426E0,-1.6861314E0,-8.2352924E-1,-1.1898729E0,1.4965959E-1,-7.843135E-1,-1.7282377E0,-1.9500831E0,-1.350427E0,1.9525423E0,4.99995E-1,-1.1111066E0,1.5789453E0,-1.4999975E0,1.4285713E0,1.17644705E-1,-1.8139526E0,-2.1052526E-1,1.3333317E0,1.6799984E0,3.99996E-1,-1.2380934E0,7.99996E-1,-1.6571428E0,6.6666335E-1,-6.666622E-1,1.4285686E0,1.0163928E0,-1.0769216E0,-1.846153E0,-4.615354E-1,-1.8399996E0,-4.7618985E-1,1.0714282E0,-2.6819915E-1,1.33333E0,-1.4999975E0,1.5087715E0,-9.090873E-1,-1.8192533E0,4.6510696E-2,8.5714203E-1,-1.3207544E0,-1.6825391E0,5.99998E-1,1.4385958E0,-6.3829744E-1,-1.8904104E0,-1.6296266E-1,5.7142574E-1,-1.7830802E0,-1.959562E0,-9.473663E-1,-6.6666585E-1,-1.7260269E0,4.99995E-1,1.9590443E0,1.655E0,1.1262136E0,1.2727237E0,-1.199996E0,8.888867E-1,-9.9999833E-1,1.5789453E0,2.2221778E-1,-1.4999975E0,-2.2221778E-1,-1.0993375E0,-1.8624338E0,-0E0,9.99995E-1,1.3454539E0,-1.199996E0,-1.6190457E0,6.666622E-1,-1.1111066E0,4.99995E-1,-1.2820503E0,7.142843E-1,1.7288129E0,3.1578878E-1,1.3333318E-1,-6.420663E-1,-4.99995E-1,1.5999997E0,-1.9032258E0,1.0588212E0,9.629615E-1,-1.199998E0,1.1111102E0,-9.99995E-1,1.8181728E-1,-1.8319324E0,1.466664E0,-1.1111066E0,1.6595737E0,2.8571144E-1,5.945935E-1,-1.3442616E0,9.090903E-1,-1.1232871E0,-2.2221778E-1,1.1111066E0,-5.99998E-1,-1.8202246E0,-1.466664E0,4.99995E-1,4.615369E-1,-1.6923062E0,-3.99996E-1,-1.820895E0],"categories":[],"categories_nodes":[],"categories_segments":[],"categories_sizes":[],"default_left":[1,1,1,1,1,1,1,1,1,1,1,1,0,1,1,0,0,1,1,0,1,0,1,1,1,1,1,1,1,1,0,1,1,1,0,0,1,0,1,0,1,0,0,0,1,1,1,1,1,1,1,1,0,1,1,1,0,1,0,1,1,1,1,0,1,1,1,1,1,1,1,1,1,0,0,1,1,0,0,0,1,1,1,0,0,0,0,0,0,1,0,0,1,0,0,0,0,1,1,1,1,1,1,1,1,1,1,1,1,1,1,1,1,1,0,0,0,0,1,1,0,1,1,0,0,1,0,1,1,0,0,1,1,0,1,0,1,1,1,0,0,1,0,1,1,1,1,0,1,1,1,0,1,1,1,0,1,1,1,0,0,0,0,0,0,0,0,0,0,0,0,0,0,0,0,0,0,0,0,0,0,0,0,0,0,0,0,0,0,0,0,0,0,0,0,0,0,0,0,0,0,0,0,0,0,0,0,0,0,0,0,0,0,0,0],"id":0,"left_children":[1,3,5,7,9,11,13,15,17,19,21,23,-1,25,27,-1,-1,29,31,-1,33,-1,35,37,39,41,43,45,47,49,-1,51,53,55,-1,-1,57,-1,59,-1,61,-1,-1,-1,63,65,67,69,71,73,75,77,-1,79,81,83,-1,85,-1,87,89,91,93,-1,95,97,99,101,103,105,107,109,111,-1,-1,113,115,-1,-1,-1,117,119,121,-1,-1,-1,-1,-1,-1,123,-1,-1,125,-1,-1,-1,-1,127,129,131,133,135,137,139,141,143,145,147,149,151,153,155,157,159,-1,-1,-1,-1,161,163,-1,165,167,-1,-1,169,-1,171,173,-1,-1,175,177,-1,179,-1,181,183,185,-1,-1,187,-1,189,191,193,195,-1,197,199,201,-1,203,205,207,-1,209,211,213,-1,-1,-1,-1,-1,-1,-1,-1,-1,-1,-1,-1,-1,-1,-1,-1,-1,-1,-1,-1,-1,-1,-1,-1,-1,-1,-1,-1,-1,-1,-1,-1,-1,-1,-1,-1,-1,-1,-1,-1,-1,-1,-1,-1,-1,-1,-1,-1,-1,-1,-1,-1,-1,-1,-1,-1],"loss_changes":[2.2226616E3,1.1257263E2,7.270637E2,7.323071E1,3.4999134E1,3.2100208E2,6.8683093E2,4.6166992E-1,7.48515E1,1.6443525E1,1.8524185E1,6.451315E1,0E0,2.115094E1,2.3469385E2,0E0,0E0,3.430432E1,2.3351141E2,0E0,1.6588982E1,0E0,5.497719E0,1.3036713E1,3.4285572E1,4.308777E-1,1.755147E1,1.5359886E2,4.6423462E1,4.380432E0,0E0,3.533838E1,8.370026E1,7.14032E0,0E0,0E0,5.43314E-1,0E0,5.2786865E0,0E0,1.2808593E1,0E0,0E0,0E0,4.7674866E0,2.9643005E1,5.7752483E1,5.3742676E1,1.953247E1,3.4666479E0,3.496582E0,3.3660126E-1,0E0,5.0535767E1,2.2122992E1,2.4207306E-1,0E0,2.3208618E-2,0E0,4.838745E0,1.0810898E1,6.327239E0,3.1670914E0,0E0,1.5708733E0,2.3040222E1,3.7864094E1,5.4726784E1,1.2840149E1,2.5533752E1,2.2947296E1,2.9612885E1,5.975708E0,0E0,0E0,4.0124512E-1,1.0453179E1,0E0,0E0,0E0,3.1968506E1,9.645191E0,8.6049385E0,0E0,0E0,0E0,0E0,0E0,0E0,9.754734E-1,0E0,0E0,6.6475916E0,0E0,0E0,0E0,0E0,1.32421875E1,5.563882E0,1.9810598E1,2.3606453E0,1.6205116E1,4.1371075E1,1.3666616E1,1.2926758E1,3.1684082E1,4.3751366E1,1.8425255E1,3.8242527E1,3.4742897E1,1.5869446E1,9.9975586E-1,6.361294E0,4.1351318E-1,0E0,0E0,0E0,0E0,2.2337585E1,7.9956756E0,0E0,9.134469E0,1.28654E0,0E0,0E0,1.0634832E0,0E0,1.29823E1,6.6665995E-1,0E0,0E0,1.273678E1,7.2234187E0,0E0,2.585447E0,0E0,1.6025612E1,1.3362923E1,1.9676239E1,0E0,0E0,6.0228043E0,0E0,3.27688E1,1.3435961E1,6.8888636E0,3.0864334E1,0E0,9.044405E0,3.1561775E0,2.1253153E1,0E0,3.5767426E1,1.7460164E0,3.9725037E0,0E0,4.3034887E0,1.46666355E1,1.5674438E0,0E0,0E0,0E0,0E0,0E0,0E0,0E0,0E0,0E0,0E0,0E0,0E0,0E0,0E0,0E0,0E0,0E0,0E0,0E0,0E0,0E0,0E0,0E0,0E0,0E0,0E0,0E0,0E0,0E0,0E0,0E0,0E0,0E0,0E0,0E0,0E0,0E0,0E0,0E0,0E0,0E0,0E0,0E0,0E0,0E0,0E0,0E0,0E0,0E0,0E0,0E0,0E0,0E0,0E0,0E0,0E0],"parents":[2147483647,0,0,1,1,2,2,3,3,4,4,5,5,6,6,7,7,8,8,9,9,10,10,11,11,13,13,14,14,17,17,18,18,20,20,22,22,23,23,24,24,25,25,26,26,27,27,28,28,29,29,31,31,32,32,33,33,36,36,38,38,40,40,44,44,45,45,46,46,47,47,48,48,49,49,50,50,51,51,53,53,54,54,55,55,57,57,59,59,60,60,61,61,62,62,64,64,65,65,66,66,67,67,68,68,69,69,70,70,71,71,72,72,75,75,76,76,80,80,81,81,82,82,89,89,92,92,97,97,98,98,99,99,100,100,101,101,102,102,103,103,104,104,105,105,106,106,107,107,108,108,109,109,110,110,111,111,112,112,113,113,118,118,119,119,121,121,122,122,125,125,127,127,128,128,131,131,132,132,134,134,136,136,137,137,138,138,141,141,143,143,144,144,145,145,146,146,148,148,149,149,150,150,152,152,153,153,154,154,156,156,157,157,158,158],"right_children":[2,4,6,8,10,12,14,16,18,20,22,24,-1,26,28,-1,-1,30,32,-1,34,-1,36,38,40,42,44,46,48,50,-1,52,54,56,-1,-1,58,-1,60,-1,62,-1,-1,-1,64,66,68,70,72,74,76,78,-1,80,82,84,-1,86,-1,88,90,92,94,-1,96,98,100,102,104,106,108,110,112,-1,-1,114,116,-1,-1,-1,118,120,122,-1,-1,-1,-1,-1,-1,124,-1,-1,126,-1,-1,-1,-1,128,130,132,134,136,138,140,142,144,146,148,150,152,154,156,158,160,-1,-1,-1,-1,162,164,-1,166,168,-1,-1,170,-1,172,174,-1,-1,176,178,-1,180,-1,182,184,186,-1,-1,188,-1,190,192,194,196,-1,198,200,202,-1,204,206,208,-1,210,212,214,-1,-1,-1,-1,-1,-1,-1,-1,-1,-1,-1,-1,-1,-1,-1,-1,-1,-1,-1,-1,-1,-1,-1,-1,-1,-1,-1,-1,-1,-1,-1,-1,-1,-1,-1,-1,-1,-1,-1,-1,-1,-1,-1,-1,-1,-1,-1,-1,-1,-1,-1,-1,-1,-1,-1,-1],"split_conditions":[-1.2905674E-2,-7.245138E-2,2.5515607E-1,-4.8827484E-2,8.7648354E-2,5.053284E-2,1.2951523E-1,-4.7010028E-1,2.551543E-1,-1.8320057E0,2.0571603E-2,5.64153E-2,-5.803278E-1,-7.270661E-1,-1.21754296E-1,1.499985E-1,5.9501386E-1,1.295761E-1,5.6415293E-2,3.8181713E-1,4.0274686E-1,-4.1538373E-1,-6.199351E-2,2.0571599E-2,1.8284075E-2,6.0071483E-2,9.5724285E-2,5.6415297E-2,-1.1336769E-2,2.0571603E-2,-4.285706E-1,1.2516141E0,2.0571604E-2,5.6415305E-2,3.5999882E-1,-1.499985E-1,-1.3437863E-2,-2.9999852E-1,5.6415297E-2,-5.199996E-1,6.0071424E-2,5.914893E-1,1.499985E-1,-4.399992E-1,2.5935926E-2,1.7342284E-2,4.4868276E-2,-3.5328232E-3,-1.0464518E-1,5.641535E-2,-1.3573658E-2,4.1955724E-2,4.399992E-1,2.0571603E-2,5.6415297E-2,-2.3824982E-2,1.499985E-1,1.481045E-1,1.6363528E-1,-6.124135E-1,-6.072193E-2,1.2951523E-1,1.810249E-2,-1.499985E-1,5.64153E-2,2.057161E-2,-1.1125352E-2,2.9083636E-2,9.870318E-3,5.64153E-2,2.9287873E-2,-8.130295E-3,6.937012E-2,-1.19998805E-1,3.599992E-1,5.641535E-2,3.1408504E-2,-5.7913035E-1,-1.499985E-1,-4.5599955E-1,1.4923227E-1,-1.0895896E-1,-1.3293582E-2,-1.499985E-1,-5.657141E-1,5.2941144E-1,1.499985E-1,5.4544367E-2,5.906433E-1,-8.6774215E-2,-2.727262E-1,3.5999882E-1,2.0571604E-2,5.4544367E-2,5.314282E-1,6.666534E-2,4.999995E-1,2.5515628E-1,3.642602E-1,7.975495E-2,-1.252763E-1,3.6651194E-2,-1.3722461E-1,-2.8222322E-1,-3.909044E-2,1.05268024E-1,-1.2524332E-1,4.4242796E-3,-3.718685E-2,3.640805E-2,-2.6688185E-1,1.4714277E-1,-5.380381E-2,-1.7944753E-1,1.499985E-1,-3.33332E-1,4.736836E-1,-4.4999927E-1,-1.55107025E-2,1.9935176E-1,-5.441858E-1,-1.3345344E-1,4.7869667E-2,5.0399953E-1,1.19998805E-1,2.0571604E-2,2.3999882E-1,-1.1127623E-1,-8.270976E-3,-1.9999868E-1,4.285706E-1,4.453233E-2,3.1330273E-1,-5.5384594E-1,-1.0381895E-2,-5.5199987E-1,-6.181419E-2,-5.0194077E-2,-1.0140379E-1,3.9999902E-1,-4.4999927E-1,-1.28897745E-2,-2.727262E-1,4.7591127E-2,1.456413E-1,2.9965417E-2,-7.496054E-2,-5.0476176E-1,5.6415297E-2,1.2828124E-1,3.977313E-2,-5.671232E-1,-1.3324979E-1,-5.178664E-1,-1.4819898E-1,-5.8786863E-1,2.0571604E-2,-9.353094E-3,7.565457E-2,1.499985E-1,5.877133E-1,4.9650002E-1,3.3786407E-1,3.8181713E-1,-3.5999882E-1,2.6666602E-1,-2.999995E-1,4.736836E-1,6.666534E-2,-4.4999927E-1,-6.666534E-2,-3.2980126E-1,-5.587302E-1,-0E0,2.9999852E-1,4.036362E-1,-3.5999882E-1,-4.8571375E-1,1.9999868E-1,-3.33332E-1,1.499985E-1,-3.846151E-1,2.142853E-1,5.186439E-1,9.4736636E-2,3.9999954E-2,-1.926199E-1,-1.499985E-1,4.7999993E-1,-5.7096773E-1,3.1764638E-1,2.8888845E-1,-3.5999942E-1,3.3333308E-1,-2.9999852E-1,5.4545186E-2,-5.4957974E-1,4.399992E-1,-3.33332E-1,4.978721E-1,8.571343E-2,1.7837806E-1,-4.032785E-1,2.727271E-1,-3.3698612E-1,-6.666534E-2,3.33332E-1,-1.7999941E-1,-5.460674E-1,-4.399992E-1,1.499985E-1,1.3846108E-1,-5.0769186E-1,-1.19998805E-1,-5.462685E-1],"split_indices":[1,11,2,0,14,8,0,11,2,2,6,3,0,0,11,0,0,8,3,0,8,0,11,7,13,10,14,3,1,6,0,8,5,3,0,0,1,0,3,0,10,0,0,0,9,14,13,8,13,3,8,8,0,6,3,1,0,11,0,8,14,0,9,0,12,6,1,9,9,3,9,1,14,0,0,3,9,0,0,0,4,13,1,0,0,0,0,0,0,14,0,0,7,0,0,0,0,2,8,14,11,13,11,8,8,14,14,13,13,9,8,8,13,14,0,0,0,0,1,8,0,11,13,0,0,6,0,14,1,0,0,8,14,0,1,0,8,13,14,0,0,1,0,9,14,13,8,0,3,11,9,0,13,8,14,0,6,1,14,0,0,0,0,0,0,0,0,0,0,0,0,0,0,0,0,0,0,0,0,0,0,0,0,0,0,0,0,0,0,0,0,0,0,0,0,0,0,0,0,0,0,0,0,0,0,0,0,0,0,0,0,0,0,0,0],"split_type":[0,0,0,0,0,0,0,0,0,0,0,0,0,0,0,0,0,0,0,0,0,0,0,0,0,0,0,0,0,0,0,0,0,0,0,0,0,0,0,0,0,0,0,0,0,0,0,0,0,0,0,0,0,0,0,0,0,0,0,0,0,0,0,0,0,0,0,0,0,0,0,0,0,0,0,0,0,0,0,0,0,0,0,0,0,0,0,0,0,0,0,0,0,0,0,0,0,0,0,0,0,0,0,0,0,0,0,0,0,0,0,0,0,0,0,0,0,0,0,0,0,0,0,0,0,0,0,0,0,0,0,0,0,0,0,0,0,0,0,0,0,0,0,0,0,0,0,0,0,0,0,0,0,0,0,0,0,0,0,0,0,0,0,0,0,0,0,0,0,0,0,0,0,0,0,0,0,0,0,0,0,0,0,0,0,0,0,0,0,0,0,0,0,0,0,0,0,0,0,0,0,0,0,0,0,0,0,0,0,0,0,0,0,0,0],"sum_hessian":[2.2E3,7.9375E2,1.40625E3,7.585E2,3.525E1,1.9125E2,1.215E3,1.805E2,5.78E2,2.175E1,1.35E1,1.6175E2,2.95E1,8.05E1,1.1345E3,1E0,1.795E2,1.5925E2,4.1875E2,1.75E0,2E1,2.25E0,1.125E1,1.385E2,2.325E1,7.05E1,1E1,3.995E2,7.35E2,1.5675E2,2.5E0,3.15E1,3.8725E2,1.85E1,1.5E0,1E0,1.025E1,1E0,1.375E2,6.5E0,1.675E1,6.95E1,1E0,2.75E0,7.25E0,1.7E2,2.295E2,2.405E2,4.945E2,4.25E0,1.525E2,2.875E1,2.75E0,3.6075E2,2.65E1,1.75E1,1E0,8.5E0,1.75E0,1.29E2,8.5E0,7.25E0,9.5E0,1E0,6.25E0,1.36E2,3.4E1,1.9525E2,3.425E1,1.86E2,5.45E1,1.6675E2,3.2775E2,1.5E0,2.75E0,1.475E2,5E0,2.775E1,1E0,5.25E0,3.555E2,1.3E1,1.35E1,1E0,1.65E1,7.5E0,1E0,1.75E0,1.2725E2,6.75E0,1.75E0,1.5E0,5.75E0,1.75E0,7.75E0,1.25E0,5E0,1.3225E2,3.75E0,1.975E1,1.425E1,3.875E1,1.565E2,5E0,2.925E1,1.36E2,5E1,1.875E1,3.575E1,5E1,1.1675E2,2.995E2,2.825E1,1.465E2,1E0,1.25E0,3.75E0,3E0,3.525E2,3.25E0,9.75E0,8.5E0,5E0,5.25E0,1.5E0,4.25E0,1.5E0,1.3025E2,2E0,1.25E0,2.5E0,1.425E1,5.5E0,1.2E1,2.25E0,2.4E1,1.475E1,2.7E1,1.295E2,2E0,3E0,2.75E1,1.75E0,1.2625E2,9.75E0,1.125E1,3.875E1,1.475E1,4E0,1.325E1,2.25E1,1.725E1,3.275E1,2.5E0,1.1425E2,2.9575E2,3.75E0,1.1E1,1.725E1,1E0,1.455E2,1.99E2,1.535E2,1.75E0,1.5E0,3.5E0,5E0,3.75E0,1.25E0,3E0,1.25E0,3.675E1,9.35E1,1E0,1E0,1.275E1,1.5E0,4.25E0,1.25E0,1.25E0,1E0,8.75E0,6E0,1.375E1,1.325E1,6.275E1,6.675E1,1E0,2.65E1,1.23E2,3.25E0,5.75E0,4E0,1.025E1,1E0,1E1,2.875E1,2.75E0,1.25E0,1.075E1,2.5E0,8.25E0,1.425E1,1.55E1,1.725E1,1.25E0,1.25E0,4E0,1.1025E2,2.75E0,1E0,5.5E0,5.5E0,1.5E0,1.575E1],"tree_param":{"num_deleted":"0","num_feature":"15","num_nodes":"215","size_leaf_vector":"0"}},{"base_weights":[-1.6619964E-3,1.0096165E0,-5.722301E-1,1.085652E0,-4.900543E-2,8.079709E-1,-7.862673E-1,1.531519E0,9.4858056E-1,-5.1683474E-1,8.8522255E-1,1.2344506E0,-1.5043058E0,1.363667E0,-9.3686455E-1,1.4042019E0,7.752676E-1,1.2591612E0,-7.591442E-1,-9.6776503E-1,1.1121914E0,1.43706E0,5.217049E-2,1.5193135E0,2.6581088E-1,-4.605891E-1,-1.203123E0,1.4549946E0,-1.1640892E0,-1.1745596E0,9.215955E-1,1.2419024E0,-1.0392798E0,-2.7023777E-1,1.343199E0,-2.3734011E-1,1.4609002E0,-1.369294E0,6.4076E-1,1.0513238E0,-9.748345E-1,-1.012251E0,-6.342232E-2,-1.0501926E0,-1.4809754E0,5.235833E-1,1.4789923E0,-1.4699517E0,1.1900159E0,1.0160371E0,-3.3693662E-1,-1.3330245E0,-5.744296E-2,1.4251027E0,4.8507673E-1,1.504598E0,7.3317164E-1,-1.2219229E-1,1.1908509E0,1.2293599E0,2.1773957E-1,-1.1926352E0,-1.9866583E-1,-1.2116551E0,-4.5050472E-1,4.136293E-1,-3.7452415E-1,-1.165537E0,-6.02849E-1,-1.5432369E0,-7.332992E-1,-3.2879147E-1,9.611655E-1,1.5040387E0,6.366294E-1,-1.1756645E0,1.050817E0,-1.0564111E0,3.7174076E-1,5.3222233E-1,-1.5487828E0,7.7988017E-1,-1.2861006E0,1.4718272E-1,1.5236154E0,1.1756257E0,-7.453133E-1,6.3702965E-1,-8.234633E-1,1.4718272E-1,1.394783E0,5.754594E-1,-1.2871807E0,2.6820216E-1,-1.1518853E0,1.007567E0,4.8500758E-2,-1.339895E0,8.968753E-2,-5.0107414E-1,-1.2794386E0,-8.223204E-1,2.6441973E-1,-1.5496908E0,-6.544329E-1,-1.3635299E0,6.9695026E-1,1.5175978E0,5.7388073E-1,-9.418882E-1,1.2658497E0,-1.59483E0,1.0727885E0,1.5593658E-1,-1.4410075E0,-1.1157107E-1,1.0650424E0,1.197585E0,-2.928189E-1,1.3336108E0,3.2879153E-1,1.1307982E0,-9.394587E-2,-1.2468239E0,2.0626824E-1,1.394884E0,-6.713297E-1,-9.9937236E-1,-1.5793356E0,6.693605E-1,-1.2775806E0,-1.5312029E0,1.0507138E0,-1.4153929E0,1.2632736E0,2.8547674E-1,-9.282215E-1,-1.4892732E0,1.2111427E-1,-6.1149055E-1,7.048804E-1,-1.4999875E0,-9.2082016E-2,-1.4804078E0,-1.0392202E0,-1.0980463E0,2.4773692E-1,-1.307865E0,8.720036E-1,-1.588551E-1,-8.485225E-1,-1.4900614E0,4.0202245E-2,1.679758E0,-8.6000973E-1,-5.0199028E-2,9.01315E-1,1.2217366E0,7.272748E-1,-9.2025274E-1,1.0565804E0,-8.228358E-1,8.198219E-1,1.2658497E0,1.8530951E-1,-1.2205193E0,-8.136547E-2,1.0944866E0,-1.2504244E0,1.4481212E0,7.3841727E-1,1.0935729E0,-1.2064048E-1,-1.231156E0,6.7014855E-1,-6.6685027E-1,-1.6080269E0,9.060596E-1,-9.1993624E-1,-1.10141985E-1,-1.6617672E0,2.0011717E-1,1.2221079E0,7.400566E-1,-8.63811E-1,-2.504174E-1,-1.4898682E0,-1.0702987E0,9.47485E-1,-1.3978711E0,-7.156609E-1,9.786478E-1,-2.530996E-1,1.1369077E0,-9.524265E-1],"categories":[],"categories_nodes":[],"categories_segments":[],"categories_sizes":[],"default_left":[1,1,1,1,1,1,1,0,1,1,1,1,0,1,1,1,1,0,1,0,1,1,1,0,1,1,1,1,0,1,1,0,1,0,1,0,1,0,1,1,1,1,1,1,1,1,1,0,0,1,1,1,1,0,0,1,1,1,1,0,0,0,0,1,1,1,1,1,1,1,1,0,0,1,1,0,1,1,1,0,0,1,0,0,0,1,0,1,1,0,0,1,1,1,1,1,1,1,1,1,1,1,1,0,1,1,1,0,1,0,0,0,1,1,0,1,1,0,0,0,0,0,0,0,0,0,0,1,0,1,0,0,0,0,1,1,1,1,1,1,1,0,1,1,1,1,1,0,1,0,0,0,0,0,0,0,0,0,0,0,0,0,0,0,0,0,0,0,0,0,0,0,0,0,0,0,0,0,0,0,0,0,0,0,0,0,0,0,0,0,0,0,0,0,0],"id":1,"left_children":[1,3,5,7,9,11,13,-1,15,17,19,21,-1,23,25,27,29,-1,31,-1,33,35,37,-1,39,41,43,45,-1,47,49,-1,51,-1,53,-1,55,-1,57,59,61,63,65,67,69,71,73,-1,-1,75,77,79,81,-1,-1,83,85,87,89,-1,-1,-1,-1,91,93,95,97,99,101,103,105,-1,-1,107,109,-1,111,113,115,-1,-1,117,-1,-1,-1,119,-1,121,123,-1,-1,125,127,129,131,133,135,137,139,141,143,145,147,-1,149,151,153,-1,155,-1,-1,-1,157,159,-1,161,163,-1,-1,-1,-1,-1,-1,-1,-1,-1,-1,165,-1,167,-1,-1,-1,-1,169,171,173,175,177,179,181,-1,183,185,187,189,191,-1,193,-1,-1,-1,-1,-1,-1,-1,-1,-1,-1,-1,-1,-1,-1,-1,-1,-1,-1,-1,-1,-1,-1,-1,-1,-1,-1,-1,-1,-1,-1,-1,-1,-1,-1,-1,-1,-1,-1,-1,-1,-1,-1,-1,-1,-1,-1],"loss_changes":[1.1924575E3,6.0055115E1,3.9093832E2,4.1054565E1,2.2708015E1,1.7726538E2,3.7178265E2,0E0,4.1126495E1,1.5825781E1,8.375679E0,3.6029755E1,0E0,1.2466171E1,1.3513684E2,2.0750793E1,1.1221779E2,0E0,1.8684593E1,0E0,5.4493637E0,5.4816284E0,2.0194761E1,0E0,1.1320098E1,8.435724E1,2.7581787E1,2.4375E0,0E0,2.104897E1,4.3474396E1,0E0,7.930584E0,0E0,2.796116E-1,0E0,2.9345093E0,0E0,7.2840986E0,7.6369953E-1,5.4312325E-1,1.7512833E1,3.3560825E1,2.2295654E1,1.0086853E1,2.2396584E0,1.9865417E0,0E0,0E0,2.6985382E1,1.3691092E1,9.406303E0,8.655549E0,0E0,0E0,2.8431702E0,6.857017E0,4.8013754E0,1.9180222E0,0E0,0E0,0E0,0E0,1.6720184E1,2.2401672E1,1.9322048E1,6.1410236E1,2.60961E1,1.8002453E1,2.5671387E-1,1.9366486E1,0E0,0E0,8.288574E-1,6.9164886E0,0E0,2.1071136E1,6.3805866E0,4.7694583E0,0E0,0E0,2.6117496E0,0E0,0E0,0E0,5.5485153E-1,0E0,1.7018669E0,2.2677495E0,0E0,0E0,6.5468044E0,7.998749E0,1.4781053E1,2.029852E1,2.2825932E1,1.33117285E1,9.886383E0,4.067395E1,2.1653967E1,1.2989685E1,2.2344452E1,1.9889841E1,0E0,1.8533194E-1,2.638916E0,1.2019575E1,0E0,7.695682E-1,0E0,0E0,0E0,1.6141388E1,4.928802E0,0E0,6.6919093E0,7.8929377E-1,0E0,0E0,0E0,0E0,0E0,0E0,0E0,0E0,0E0,0E0,1.2101719E1,0E0,1.6456205E1,0E0,0E0,0E0,0E0,1.9617844E0,1.5269739E1,6.2679577E0,2.8756332E0,4.960292E0,2.3056496E1,1.2850561E1,0E0,2.56271E1,1.5061035E0,9.685272E0,5.8404007E0,6.157225E0,0E0,8.214527E0,0E0,0E0,0E0,0E0,0E0,0E0,0E0,0E0,0E0,0E0,0E0,0E0,0E0,0E0,0E0,0E0,0E0,0E0,0E0,0E0,0E0,0E0,0E0,0E0,0E0,0E0,0E0,0E0,0E0,0E0,0E0,0E0,0E0,0E0,0E0,0E0,0E0,0E0,0E0,0E0,0E0,0E0,0E0,0E0,0E0,0E0],"parents":[2147483647,0,0,1,1,2,2,3,3,4,4,5,5,6,6,8,8,9,9,10,10,11,11,13,13,14,14,15,15,16,16,18,18,20,20,21,21,22,22,24,24,25,25,26,26,27,27,29,29,30,30,32,32,34,34,36,36,38,38,39,39,40,40,41,41,42,42,43,43,44,44,45,45,46,46,49,49,50,50,51,51,52,52,55,55,56,56,57,57,58,58,63,63,64,64,65,65,66,66,67,67,68,68,69,69,70,70,73,73,74,74,76,76,77,77,78,78,81,81,85,85,87,87,88,88,91,91,92,92,93,93,94,94,95,95,96,96,97,97,98,98,99,99,100,100,101,101,102,102,104,104,105,105,106,106,108,108,112,112,113,113,115,115,116,116,127,127,129,129,134,134,135,135,136,136,137,137,138,138,139,139,140,140,142,142,143,143,144,144,145,145,146,146,148,148],"right_children":[2,4,6,8,10,12,14,-1,16,18,20,22,-1,24,26,28,30,-1,32,-1,34,36,38,-1,40,42,44,46,-1,48,50,-1,52,-1,54,-1,56,-1,58,60,62,64,66,68,70,72,74,-1,-1,76,78,80,82,-1,-1,84,86,88,90,-1,-1,-1,-1,92,94,96,98,100,102,104,106,-1,-1,108,110,-1,112,114,116,-1,-1,118,-1,-1,-1,120,-1,122,124,-1,-1,126,128,130,132,134,136,138,140,142,144,146,148,-1,150,152,154,-1,156,-1,-1,-1,158,160,-1,162,164,-1,-1,-1,-1,-1,-1,-1,-1,-1,-1,166,-1,168,-1,-1,-1,-1,170,172,174,176,178,180,182,-1,184,186,188,190,192,-1,194,-1,-1,-1,-1,-1,-1,-1,-1,-1,-1,-1,-1,-1,-1,-1,-1,-1,-1,-1,-1,-1,-1,-1,-1,-1,-1,-1,-1,-1,-1,-1,-1,-1,-1,-1,-1,-1,-1,-1,-1,-1,-1,-1,-1,-1,-1],"split_conditions":[-1.2905674E-2,-9.706549E-2,2.5515607E-1,-4.8827484E-2,6.6590505E-3,5.053284E-2,1.2951523E-1,4.5945573E-1,2.551543E-1,-1.8320057E0,2.0571603E-2,5.64153E-2,-4.5129177E-1,-7.270661E-1,-1.21754296E-1,1.295761E-1,5.6415293E-2,3.777484E-1,-3.7957923E0,-2.9032952E-1,2.2257812E-2,2.0571603E-2,1.8284075E-2,4.5579407E-1,-5.8126813E-1,5.6415297E-2,2.0571604E-2,2.0571603E-2,-3.4922677E-1,1.2516141E0,2.0571604E-2,3.7257072E-1,1.0641742E-1,-8.107133E-2,2.0571604E-2,-7.120203E-2,5.6415297E-2,-4.1078824E-1,6.0071424E-2,9.9203445E-2,5.4232568E-2,4.664855E-2,-1.1993533E-2,2.0571604E-2,2.551561E-1,5.641535E-2,-1.3573658E-2,-4.4098553E-1,3.570048E-1,2.0571603E-2,5.6415297E-2,-4.1471487E-1,5.821415E-2,4.2753083E-1,1.4552303E-1,-6.124135E-1,-6.072193E-2,-1.2616707E-2,1.810249E-2,3.6880797E-1,6.532187E-2,-3.5779056E-1,-5.959975E-2,-2.6292962E-1,5.9012465E-2,-1.23202525E-1,3.8593825E-2,-1.178893E-1,1.3034378E-1,4.069173E-1,7.191033E-3,-9.863745E-2,2.8834966E-1,2.8634908E-2,3.1408504E-2,-3.5269937E-1,-1.7491552E-1,-1.1326063E-1,-1.3293582E-2,1.596667E-1,-4.6463487E-1,2.1182053E-2,-3.858302E-1,4.4154815E-2,4.5708463E-1,-8.6774215E-2,-2.23594E-1,5.6415305E-2,-9.934956E-3,4.4154815E-2,4.1843492E-1,-1.0603933E-2,-1.1387501E-2,2.0571604E-2,2.0571608E-2,-1.5162924E-1,5.6415297E-2,4.656882E-2,2.0571604E-2,3.0287549E-2,-3.335409E-2,6.296164E-2,2.6430035E-2,-4.6490726E-1,-3.817943E-3,5.641533E-2,7.433541E-2,4.5527935E-1,3.312429E-2,-2.825665E-1,3.7975493E-1,-4.7844902E-1,2.5097022E-4,6.7909606E-2,-4.3230227E-1,1.2085201E-1,4.7869667E-2,3.5927552E-1,-8.7845676E-2,4.0008324E-1,9.863746E-2,3.3923948E-1,-2.8183762E-2,-3.740472E-1,6.1880473E-2,4.1846523E-1,-2.0139891E-1,1.7342284E-2,-4.738007E-1,-5.821944E-3,-3.832742E-1,-4.593609E-1,3.1521416E-1,-4.246179E-1,2.0571604E-2,2.377171E-2,4.958648E-2,-1.1914371E-2,-1.5634352E-1,7.960369E-2,4.0011123E-2,-4.4999626E-1,-1.1166666E-2,-2.5550878E-1,2.9204357E-1,-3.3071678E-2,2.0571604E-2,-3.9235952E-1,-8.254794E-3,-4.7656532E-2,-2.5455675E-1,-4.4701844E-1,1.2060674E-2,5.039274E-1,-2.5800294E-1,-1.5059709E-2,2.703945E-1,3.6652097E-1,2.1818244E-1,-2.7607584E-1,3.1697413E-1,-2.4685074E-1,2.4594657E-1,3.7975493E-1,5.5592857E-2,-3.661558E-1,-2.4409642E-2,3.2834598E-1,-3.7512735E-1,4.3443638E-1,2.2152519E-1,3.2807186E-1,-3.6192145E-2,-3.693468E-1,2.0104457E-1,-2.000551E-1,-4.8240808E-1,2.718179E-1,-2.759809E-1,-3.30426E-2,-4.9853018E-1,6.0035154E-2,3.6663237E-1,2.2201698E-1,-2.5914332E-1,-7.5125225E-2,-4.4696048E-1,-3.2108963E-1,2.8424552E-1,-4.1936135E-1,-2.1469828E-1,2.9359436E-1,-7.592988E-2,3.4107232E-1,-2.8572795E-1],"split_indices":[1,11,2,0,8,8,0,0,2,2,6,3,0,0,11,8,3,0,0,0,14,7,13,0,8,3,7,6,0,8,5,0,14,0,5,0,3,0,10,1,9,9,1,6,2,3,8,0,0,6,3,8,13,0,0,8,14,1,9,0,0,0,0,8,8,14,9,14,8,8,11,0,0,9,9,0,14,14,1,0,0,9,0,0,0,14,0,3,1,0,0,1,1,7,6,14,12,13,6,9,14,14,9,0,1,3,9,0,9,0,0,0,9,8,0,8,13,0,0,0,0,0,0,0,0,0,0,14,0,13,0,0,0,0,6,13,13,1,11,8,8,0,1,8,9,14,5,0,1,0,0,0,0,0,0,0,0,0,0,0,0,0,0,0,0,0,0,0,0,0,0,0,0,0,0,0,0,0,0,0,0,0,0,0,0,0,0,0,0,0,0,0,0,0,0],"split_type":[0,0,0,0,0,0,0,0,0,0,0,0,0,0,0,0,0,0,0,0,0,0,0,0,0,0,0,0,0,0,0,0,0,0,0,0,0,0,0,0,0,0,0,0,0,0,0,0,0,0,0,0,0,0,0,0,0,0,0,0,0,0,0,0,0,0,0,0,0,0,0,0,0,0,0,0,0,0,0,0,0,0,0,0,0,0,0,0,0,0,0,0,0,0,0,0,0,0,0,0,0,0,0,0,0,0,0,0,0,0,0,0,0,0,0,0,0,0,0,0,0,0,0,0,0,0,0,0,0,0,0,0,0,0,0,0,0,0,0,0,0,0,0,0,0,0,0,0,0,0,0,0,0,0,0,0,0,0,0,0,0,0,0,0,0,0,0,0,0,0,0,0,0,0,0,0,0,0,0,0,0,0,0,0,0,0,0,0,0,0,0,0,0,0,0],"sum_hessian":[2.064638E3,7.444322E2,1.3202057E3,6.9452264E2,4.990959E1,1.7687392E2,1.1433318E3,1.60917E2,5.336056E2,3.355379E1,1.6355797E1,1.4972462E2,2.7149288E1,7.4317406E1,1.0690144E3,1.4508649E2,3.8851913E2,3.5245109E0,3.0029282E1,1.4286121E0,1.4927186E1,1.2763592E2,2.2088707E1,6.475324E1,9.564163E0,3.84307E2,6.847074E2,1.4269786E2,2.3886292E0,2.6631117E1,3.61888E2,3.2660675E0,2.6763214E1,2.1129131E0,1.2814272E1,1.6660457E0,1.2596987E2,6.079671E0,1.6009037E1,5.9497166E0,3.614447E0,1.6021744E2,2.2408958E2,4.4471518E2,2.3999222E2,4.157403E0,1.3854045E2,2.4010036E1,2.6210804E0,3.368064E2,2.508162E1,2.0324778E1,6.438436E0,1.1094609E1,1.7196627E0,1.1782717E2,8.142698E0,7.0327573E0,8.97628E0,4.51138E0,1.4383365E0,2.4034383E0,1.2110087E0,1.1739022E2,4.282721E1,8.832308E1,1.3576651E2,3.522774E2,9.243778E1,2.205613E2,1.9430916E1,1.4946129E0,2.6627903E0,1.3377727E2,4.7631817E0,4.74883E0,3.3205756E2,1.220252E1,1.2879099E1,1.9551924E0,1.8369585E1,4.0462146E0,2.3922217E0,1.7486991E0,1.1607847E2,6.4248405E0,1.7178581E0,3.4208314E0,3.6119256E0,1.7486991E0,7.227581E0,4.491482E0,1.1289874E2,2.1457369E1,2.1369839E1,3.2955833E1,5.5367252E1,4.3473335E1,9.229317E1,5.2340427E1,2.9993698E2,7.381098E1,1.86268E1,2.1823303E2,2.3282654E0,1.3520046E1,5.91087E0,1.3123271E2,2.5445657E0,1.215911E0,3.5472708E0,2.1453335E0,3.2991223E2,3.0819454E0,9.120574E0,8.083216E0,4.795883E0,2.8284242E0,1.2177901E0,4.9302278E0,1.494613E0,1.715241E0,1.7055905E0,2.4101923E0,1.2017336E0,2.6385682E0,1.8529136E0,5.909936E1,5.3799377E1,1.7486334E1,3.971035E0,1.849037E1,2.8794692E0,2.7130387E0,3.0242796E1,4.5126274E1,1.0240975E1,3.942324E1,4.050095E0,4.3135098E1,4.915807E1,1.4429814E1,3.791061E1,1.6049898E2,1.39438E2,5.8667694E1,1.5143286E1,4.870501E0,1.37563E1,1.167007E0,1.1612585E0,1.2345718E1,1.1743274E0,3.5752091E0,2.335661E0,1.1669856E0,1.3775799E0,2.2875978E2,1.0115244E2,1.3942078E0,1.6877377E0,4.649306E0,3.4339104E0,3.5472708E0,1.2486122E0,4.7360676E1,1.1738685E1,1.4668066E1,2.8182683E0,2.1064907E1,9.177889E0,1.4527194E1,3.0599081E1,8.802426E0,1.438549E0,5.80897E0,3.3614273E1,2.3830032E0,1.6670916E0,2.9945515E1,1.3189585E1,2.558072E1,2.357735E1,1.8261097E1,1.9649515E1,1.4347088E0,1.5906427E2,1.377445E2,1.6934949E0,3.139527E1,2.7272427E1,5.7694535E0,9.373833E0,1.2341224E1,1.4150763E0],"tree_param":{"num_deleted":"0","num_feature":"15","num_nodes":"195","size_leaf_vector":"0"}},{"base_weights":[-2.9358808E-3,8.260354E-1,-4.661564E-1,1.3276404E0,6.882685E-1,6.856962E-1,-6.367385E-1,3.170268E-1,1.3333795E0,1.1953386E0,5.206133E-1,1.0473219E0,-1.2995774E0,1.3116429E0,-7.47418E-1,1.2506458E0,-1.0581932E0,-1.1197478E0,6.7978615E-1,1.2706012E0,2.1104346E-1,1.3259934E0,3.1902096E-1,-3.547032E-1,-9.829008E-1,1.264259E0,-1.2834217E-1,-1.3318985E0,8.2795256E-1,1.8578231E-1,8.7144464E-1,-1.9267575E-1,1.2969297E0,-8.27618E-1,6.8722516E-1,-8.2855165E-1,-4.0106524E-2,-8.3800507E-1,-1.2608299E0,3.6750574E-2,1.2757723E0,9.551183E-1,2.608595E-1,1.1050338E0,-1.8625274E-1,9.971423E-1,2.3062557E-1,1.1924136E-1,1.3166372E0,-1.300975E0,8.729804E-1,8.486172E-1,-5.8418196E-1,-6.57756E-1,-1.3816444E0,-1.8713544E-1,7.598561E-1,-1.1448934E0,-6.814941E-1,-1.3184791E0,-5.935278E-1,1.2988535E0,5.164157E-1,1.2933367E0,-4.862617E-1,1.4616613E-1,-9.5622444E-1,1.3310204E0,8.229919E-1,6.908338E-1,-7.985355E-1,1.1738802E0,3.141865E-1,-8.7492675E-1,-9.47375E-3,-5.667614E-1,1.3402894E-1,-2.3475122E-1,9.4210917E-1,-1.1944705E0,8.583758E-1,-7.055227E-2,-7.939346E-1,-8.6520624E-1,-1.3500323E0,-1.0014372E0,9.467871E-1,5.7054496E-1,1.3116378E0,-8.1997055E-1,1.0817004E0,1.3537554E0,-1.6535646E-3,-1.4488444E0,6.939334E-1,6.802125E-1,-1.8329912E-1,-1.5341424E0,-4.6437522E-3,1.3616372E0,-1.8837249E-3,9.7745204E-1,-1.1903055E0,-3.684501E-2,9.813983E-1,-1.481308E0,1.1187152E0,1.7827131E-1,1.2765956E0,-9.679341E-1,9.6060205E-1,-5.136579E-1,-1.300443E0,9.217111E-1,-4.994896E-1,-1.425671E-1,-1.3212743E0,-4.068294E-1,5.4650253E-1,1.1079285E0,-1.2176764E0,1.0590304E0,-9.6459126E-1,-5.196149E-1,-1.3081368E0,1.4576278E0,-3.2865706E-1,-1.2520905E0,2.076652E-1,-1.1398902E0,-4.4509655E-1,-1.1238525E0,3.7064147E-1,2.1023288E-1,-1.1643773E0,1.3095206E0,-5.5092983E-2,-2.965002E-1,1.0779315E0,1.3194679E0,3.8718E-1,1.142997E0,-1.5354612E-1,-1.4719168E0,2.8338826E-1,6.112173E-1,-1.8111235E0,1.0123882E0,-7.725448E-1,1.4134587E0,6.984096E-1,-1.0582937E0,1.007078E0,-1.8986832E0,3.554667E-2,8.42172E-1,-4.1137677E-1,1.1530131E0,2.015643E-1,-1.8532848E0,-4.9404418E-1,1.3439338E0,3.8134181E-1,9.197078E-2,1.1984115E0,-8.2449913E-1,3.1387305E-1,-1.347238E0,1.5017195E-1,-7.022011E-2,1.5571024E0,5.322457E-1,-1.1813668E0,3.633851E-1,-5.367076E-1,-1.3818146E0,2.2022916E-2,-6.044789E-1,1.5075065E0,8.216367E-1,-2.629753E-1,2.1647196E-1,1.2566148E0,-7.3314327E-1,9.178453E-1,-1.3421257E0,-7.522783E-1,-3.0014735E-1,-1.3522142E0,-2.878396E-1,7.9416245E-1,-1.3128612E0,-5.0306547E-1,-5.15211E-1,9.4938076E-1,-1.2597476E0,1.7317502E-1,-7.2763056E-1,1.2828842E0,-1.2895546E0,8.61123E-2],"categories":[],"categories_nodes":[],"categories_segments":[],"categories_sizes":[],"default_left":[1,1,1,1,1,1,1,0,0,1,1,1,0,1,1,1,0,1,1,1,1,0,0,1,1,1,0,0,1,1,1,0,1,1,1,1,1,1,1,0,1,0,0,1,1,1,1,0,0,0,0,1,0,1,0,1,1,1,1,1,1,1,1,1,1,1,1,1,1,1,1,1,1,1,1,1,1,1,1,1,1,1,1,1,0,1,1,1,1,0,0,0,0,0,0,1,1,1,1,1,0,1,1,1,1,1,0,0,1,0,1,1,1,1,1,1,1,1,1,0,0,1,0,1,1,0,0,1,1,1,1,1,1,0,1,0,0,0,0,0,0,0,0,0,0,0,0,0,0,0,0,0,0,0,0,0,0,0,0,0,0,0,0,0,0,0,0,0,0,0,0,0,0,0,0,0,0,0,0,0,0,0,0,0,0,0,0,0,0,0,0,0,0,0,0,0,0,0,0,0,0],"id":2,"left_children":[1,3,5,7,9,11,13,-1,-1,15,17,19,-1,21,23,25,-1,27,29,31,33,-1,-1,35,37,39,-1,-1,41,43,45,-1,47,49,51,53,55,57,59,-1,61,-1,-1,63,65,67,69,-1,-1,-1,-1,71,-1,73,-1,75,77,79,81,83,85,87,89,91,93,95,97,99,101,103,105,107,109,111,113,115,117,119,121,123,125,127,129,131,-1,133,135,137,139,-1,-1,-1,-1,-1,-1,141,143,145,147,149,-1,151,153,155,157,159,-1,-1,161,-1,163,165,167,169,171,173,175,177,179,-1,-1,181,-1,183,185,-1,-1,187,189,191,193,195,197,-1,199,-1,-1,-1,-1,-1,-1,-1,-1,-1,-1,-1,-1,-1,-1,-1,-1,-1,-1,-1,-1,-1,-1,-1,-1,-1,-1,-1,-1,-1,-1,-1,-1,-1,-1,-1,-1,-1,-1,-1,-1,-1,-1,-1,-1,-1,-1,-1,-1,-1,-1,-1,-1,-1,-1,-1,-1,-1,-1,-1,-1,-1,-1,-1,-1,-1,-1],"loss_changes":[7.028618E2,4.442929E1,2.3115593E2,3.9105225E-1,4.331624E1,1.1044755E2,2.2164746E2,0E0,0E0,1.723375E1,1.0264066E2,2.383551E1,0E0,3.6564636E-1,8.925458E1,2.5098572E0,0E0,1.551997E1,3.3572678E1,4.16745E0,1.4615971E1,0E0,0E0,5.4343136E1,2.3313232E1,1.7044678E0,0E0,0E0,4.245615E-2,3.470114E1,2.0425766E1,0E0,2.1643372E0,8.687774E0,4.603774E0,1.2835487E1,2.6050201E1,1.8468597E1,7.118805E0,0E0,1.4805145E0,0E0,0E0,9.379982E0,1.8737478E1,1.1352417E1,2.1084688E1,0E0,0E0,0E0,0E0,2.7901459E0,0E0,1.5911324E1,0E0,2.2860344E1,6.456318E0,1.4322052E1,1.834542E1,1.5242004E0,1.2353161E1,3.5462952E-1,4.8762994E0,2.0668755E0,5.3416176E0,9.206797E0,1.2115055E1,2.931343E0,4.573104E1,6.4835415E0,1.9800013E1,8.903246E-1,7.7598705E0,1.2351006E1,1.38687315E1,2.7283821E1,2.298678E1,9.435715E0,7.5467186E0,9.374252E0,3.1929305E0,1.4308064E1,2.6783539E1,5.2226706E0,0E0,3.1741314E0,1.6401422E0,1.9972461E0,3.262329E-1,0E0,0E0,0E0,0E0,0E0,0E0,7.8564615E0,2.008899E1,9.254417E0,8.070155E0,1.424057E0,0E0,9.1265335E0,9.326603E0,3.528438E0,2.6888142E0,2.9955845E0,0E0,0E0,7.508087E-2,0E0,1.1251955E0,1.2465836E1,2.7977219E0,6.7165375E0,1.4630217E1,1.1375361E1,2.5327148E0,1.7833023E1,1.3204485E1,0E0,0E0,4.3984814E0,0E0,6.981273E0,1.0971832E0,0E0,0E0,3.839903E-1,1.0530152E1,1.1775436E1,1.1658781E1,2.453413E0,4.2939696E0,0E0,2.18223E0,0E0,0E0,0E0,0E0,0E0,0E0,0E0,0E0,0E0,0E0,0E0,0E0,0E0,0E0,0E0,0E0,0E0,0E0,0E0,0E0,0E0,0E0,0E0,0E0,0E0,0E0,0E0,0E0,0E0,0E0,0E0,0E0,0E0,0E0,0E0,0E0,0E0,0E0,0E0,0E0,0E0,0E0,0E0,0E0,0E0,0E0,0E0,0E0,0E0,0E0,0E0,0E0,0E0,0E0,0E0,0E0,0E0,0E0,0E0,0E0,0E0,0E0,0E0,0E0,0E0,0E0],"parents":[2147483647,0,0,1,1,2,2,3,3,4,4,5,5,6,6,9,9,10,10,11,11,13,13,14,14,15,15,17,17,18,18,19,19,20,20,23,23,24,24,25,25,28,28,29,29,30,30,32,32,33,33,34,34,35,35,36,36,37,37,38,38,40,40,43,43,44,44,45,45,46,46,51,51,53,53,55,55,56,56,57,57,58,58,59,59,60,60,61,61,62,62,63,63,64,64,65,65,66,66,67,67,68,68,69,69,70,70,71,71,72,72,73,73,74,74,75,75,76,76,77,77,78,78,79,79,80,80,81,81,82,82,83,83,85,85,86,86,87,87,88,88,95,95,96,96,97,97,98,98,99,99,101,101,102,102,103,103,104,104,105,105,108,108,110,110,111,111,112,112,113,113,114,114,115,115,116,116,117,117,118,118,121,121,123,123,124,124,127,127,128,128,129,129,130,130,131,131,132,132,134,134],"right_children":[2,4,6,8,10,12,14,-1,-1,16,18,20,-1,22,24,26,-1,28,30,32,34,-1,-1,36,38,40,-1,-1,42,44,46,-1,48,50,52,54,56,58,60,-1,62,-1,-1,64,66,68,70,-1,-1,-1,-1,72,-1,74,-1,76,78,80,82,84,86,88,90,92,94,96,98,100,102,104,106,108,110,112,114,116,118,120,122,124,126,128,130,132,-1,134,136,138,140,-1,-1,-1,-1,-1,-1,142,144,146,148,150,-1,152,154,156,158,160,-1,-1,162,-1,164,166,168,170,172,174,176,178,180,-1,-1,182,-1,184,186,-1,-1,188,190,192,194,196,198,-1,200,-1,-1,-1,-1,-1,-1,-1,-1,-1,-1,-1,-1,-1,-1,-1,-1,-1,-1,-1,-1,-1,-1,-1,-1,-1,-1,-1,-1,-1,-1,-1,-1,-1,-1,-1,-1,-1,-1,-1,-1,-1,-1,-1,-1,-1,-1,-1,-1,-1,-1,-1,-1,-1,-1,-1,-1,-1,-1,-1,-1,-1,-1,-1,-1,-1,-1],"split_conditions":[-1.2905674E-2,-4.8827484E-2,2.5515607E-1,-4.681871E-1,2.5515425E-1,5.053284E-2,-7.270661E-1,9.510804E-2,4.0001386E-1,1.295761E-1,5.6415293E-2,5.6415297E-2,-3.8987324E-1,6.007148E-2,-1.2152089E-1,5.641538E-2,-3.1745797E-1,8.721497E-1,2.0571604E-2,2.0571603E-2,9.130433E-3,3.9779803E-1,9.570629E-2,5.6415297E-2,2.0571604E-2,-1.7944753E-1,-3.8502652E-2,-3.9956954E-1,-1.247696E0,-1.1295164E-1,1.8069258E-2,-5.780273E-2,-6.124135E-1,2.0571604E-2,-1.0966332E-1,2.0571604E-2,4.5066677E-2,2.9287873E-2,2.551561E-1,1.1025173E-2,-1.3573658E-2,2.865355E-1,7.825785E-2,2.845012E-2,4.166499E-3,9.195977E-2,6.1705798E-2,3.577241E-2,3.9499116E-1,-3.902925E-1,2.6189414E-1,5.6415312E-2,-1.752546E-1,4.664855E-2,-4.1449332E-1,3.8590595E-2,1.1190067E-2,5.641533E-2,-1.17926106E-1,2.0571604E-2,6.810247E-2,2.0571603E-2,3.1408504E-2,-1.3595564E-2,3.1973895E-2,-3.6016577E-1,-1.06463164E-1,2.0571604E-2,2.293865E-4,5.6415297E-2,2.5915701E-2,2.2309458E-2,5.641531E-2,-1.1387501E-2,-1.1020999E-1,-1.1914371E-2,2.0571604E-2,-2.8222322E-1,-3.547816E-2,-1.2399341E-2,1.3956297E-2,5.64153E-2,-3.3071678E-2,2.0571604E-2,-4.0500972E-1,5.6415297E-2,6.481542E-2,6.0071483E-2,-1.2926295E-2,-2.4599117E-1,3.2451016E-1,4.0612662E-1,-4.9606944E-4,-4.3465334E-1,2.0818004E-1,3.6439282E-1,-3.0808711E-2,-1.5547789E-2,-9.656653E-2,2.3407802E-1,-5.651175E-4,-1.7481208E-1,-3.3758E-3,-1.3093564E-1,5.0222896E-2,-3.707625E-2,3.3561456E-1,5.3481396E-2,-4.5567855E-2,-2.9038024E-1,6.0071424E-2,1.5936673E-2,2.649012E-1,-1.1875654E-1,1.827367E-2,2.0571604E-2,2.3671161E-2,5.6415483E-2,-2.721934E-3,3.3237857E-1,-3.6530292E-1,-1.2731103E-2,-2.893774E-1,9.263791E-2,1.16418935E-1,4.3728834E-1,-9.8597124E-2,-1.1960863E-1,-4.32932E-3,1.309585E-1,9.12893E-3,3.9048366E-2,1.1476688E-3,6.3069865E-2,6.007143E-2,3.928562E-1,-1.6527895E-2,-8.895007E-2,3.2337946E-1,3.9584038E-1,1.1615401E-1,3.428991E-1,-4.606384E-2,-4.4157505E-1,8.501648E-2,1.833652E-1,-5.4333705E-1,3.0371648E-1,-2.3176345E-1,4.2403764E-1,2.0952289E-1,-3.1748813E-1,3.0212343E-1,-5.69605E-1,1.0664002E-2,2.5265163E-1,-1.23413034E-1,3.4590393E-1,6.0469292E-2,-5.5598545E-1,-1.4821327E-1,4.0318015E-1,1.1440255E-1,2.7591234E-2,3.5952345E-1,-2.4734975E-1,9.416192E-2,-4.041714E-1,4.5051586E-2,-2.1066034E-2,4.6713075E-1,1.5967372E-1,-3.5441005E-1,1.0901554E-1,-1.6101228E-1,-4.145444E-1,6.606875E-3,-1.8134367E-1,4.5225197E-1,2.4649101E-1,-7.8892596E-2,6.494159E-2,3.7698445E-1,-2.1994299E-1,2.753536E-1,-4.0263772E-1,-2.2568351E-1,-9.004421E-2,-4.056643E-1,-8.635188E-2,2.3824875E-1,-3.9385837E-1,-1.5091965E-1,-1.5456331E-1,2.8481424E-1,-3.779243E-1,5.1952507E-2,-2.1828918E-1,3.8486528E-1,-3.868664E-1,2.583369E-2],"split_indices":[1,0,2,11,2,8,0,0,0,8,3,3,0,10,11,3,0,8,6,7,13,0,0,3,7,14,0,0,3,13,9,0,8,7,11,7,13,9,2,0,8,0,0,9,9,13,13,0,0,0,0,3,0,9,0,9,9,3,14,5,11,6,9,1,9,8,11,5,9,3,8,9,12,1,14,1,6,8,8,1,9,3,14,6,0,3,9,10,1,0,0,0,0,0,0,13,9,1,11,8,0,14,14,14,13,8,0,0,8,0,10,14,13,14,8,6,14,3,13,0,0,1,0,14,14,0,0,11,13,8,1,9,8,0,10,0,0,0,0,0,0,0,0,0,0,0,0,0,0,0,0,0,0,0,0,0,0,0,0,0,0,0,0,0,0,0,0,0,0,0,0,0,0,0,0,0,0,0,0,0,0,0,0,0,0,0,0,0,0,0,0,0,0,0,0,0,0,0,0,0,0],"split_type":[0,0,0,0,0,0,0,0,0,0,0,0,0,0,0,0,0,0,0,0,0,0,0,0,0,0,0,0,0,0,0,0,0,0,0,0,0,0,0,0,0,0,0,0,0,0,0,0,0,0,0,0,0,0,0,0,0,0,0,0,0,0,0,0,0,0,0,0,0,0,0,0,0,0,0,0,0,0,0,0,0,0,0,0,0,0,0,0,0,0,0,0,0,0,0,0,0,0,0,0,0,0,0,0,0,0,0,0,0,0,0,0,0,0,0,0,0,0,0,0,0,0,0,0,0,0,0,0,0,0,0,0,0,0,0,0,0,0,0,0,0,0,0,0,0,0,0,0,0,0,0,0,0,0,0,0,0,0,0,0,0,0,0,0,0,0,0,0,0,0,0,0,0,0,0,0,0,0,0,0,0,0,0,0,0,0,0,0,0,0,0,0,0,0,0,0,0,0,0,0,0],"sum_hessian":[1.8283832E3,6.551518E2,1.1732314E3,1.3930603E2,5.1584576E2,1.5094669E2,1.02228467E3,1.1042153E0,1.3820181E2,1.26653786E2,3.89192E2,1.2808748E2,2.2859201E1,5.436702E1,9.6791766E2,1.2405423E2,2.5995617E0,3.3891113E1,3.5530087E2,1.00685844E2,2.740164E1,5.3261154E1,1.1058655E0,3.6376794E2,6.041497E2,1.22923935E2,1.1302891E0,3.0847288E1,3.043827E0,9.9865326E1,2.5543556E2,1.6679283E0,9.901792E1,8.3815365E0,1.9020103E1,1.444948E2,2.1927316E2,3.9975592E2,2.043938E2,1.1811954E0,1.21742744E2,1.9273763E0,1.1164508E0,2.820475E1,7.1660576E1,2.1308293E2,4.235262E1,1.745745E0,9.727217E1,6.740369E0,1.6411674E0,1.7172745E1,1.8473579E0,1.1207512E2,3.2419678E1,1.8587617E2,3.3396984E1,1.3288278E2,2.6687314E2,1.8724188E2,1.715192E1,1.1746192E2,4.2808175E0,2.5387783E1,2.816966E0,5.061764E1,2.1042934E1,7.076691E1,1.4231602E2,2.9493025E1,1.2859595E1,9.931657E0,7.241089E0,8.368987E1,2.8385246E1,8.483454E1,1.0104164E2,5.127367E0,2.8269615E1,1.3006761E2,2.8151805E0,4.1734978E1,2.2513815E2,1.4035689E1,1.7320619E2,1.3837342E1,3.314578E0,2.8134313E0,1.1464849E2,1.1385697E0,3.1422477E0,2.4212751E1,1.1750331E0,1.4261537E0,1.3908125E0,1.890654E1,3.1711103E1,1.2711014E1,8.331921E0,6.915682E1,1.6100845E0,1.3265337E2,9.662656E0,8.665252E0,2.0827774E1,9.650308E0,3.2092884E0,1.1846513E0,8.747005E0,2.2603796E0,4.980709E0,4.6455616E1,3.7234253E1,9.483189E0,1.8902056E1,5.5065285E1,2.9769257E1,4.3723118E1,5.731852E1,2.1133447E0,3.0140224E0,2.705514E1,1.2144755E0,1.9552526E1,1.1051508E2,1.7192817E0,1.095899E0,7.287204E0,3.4447777E1,1.1189752E2,1.1324063E2,1.1681533E1,2.3541565E0,1.6058048E0,1.2231537E1,2.2080824E0,1.1064955E0,1.192037E0,1.6213943E0,1.1326187E2,1.3866227E0,1.191959E1,6.98695E0,7.8584356E0,2.3852667E1,1.3154484E0,1.1395565E1,3.4475205E0,4.8844E0,6.309563E1,6.061193E0,1.4047375E0,1.3124863E2,5.776028E0,3.886628E0,2.2159183E0,6.449333E0,1.6678793E1,4.1489816E0,6.3722105E0,3.2780967E0,7.6689816E0,1.0780241E0,1.3685772E0,3.6121318E0,3.3773228E1,1.2682389E1,3.6139706E1,1.0945472E0,4.0500255E0,5.4331636E0,7.6087813E0,1.1293275E1,2.4146627E1,3.0918655E1,2.8458029E1,1.3112261E0,4.0251507E1,3.4716086E0,4.2767296E1,1.4551223E1,5.537449E0,2.151769E1,1.7450335E1,2.1021905E0,1.02813835E2,7.701251E0,1.0739839E0,6.21322E0,1.8948368E1,1.5499408E1,8.716157E1,2.4735956E1,1.08419815E2,4.8208175E0,1.0599706E1,1.081827E0,1.1599838E0,1.1941727E0,1.1090152E1,1.1413851E0],"tree_param":{"num_deleted":"0","num_feature":"15","num_nodes":"201","size_leaf_vector":"0"}},{"base_weights":[-1.774194E-3,4.717709E-1,-5.806492E-1,1.1742446E0,3.2776678E-1,9.68484E-1,-6.667429E-1,1.1876012E0,-3.3411178E-1,1.0239477E0,1.6574603E-1,1.1682745E0,2.8193843E-1,4.2486423E-1,-8.0227524E-1,2.4403107E-1,1.1958461E0,-1.0397892E0,1.0939956E0,-1.168691E0,2.6238474E-1,1.1990114E0,2.8963137E-1,-9.247971E-1,8.7785494E-1,8.7845135E-1,-1.1688966E0,-9.4960165E-1,-3.5189787E-1,1.2218508E0,8.694392E-1,1.1779697E0,6.417743E-1,-1.2520001E0,4.5558915E-1,6.1706495E-1,-1.1778327E-1,-2.1647878E-1,1.0996944E0,1.1362244E0,-4.865838E-1,-9.715595E-1,1.2602443E0,-4.8564625E-1,8.1630486E-1,1.1899962E0,-4.3335146E-1,3.0113006E-1,1.1863707E0,9.6557266E-1,-3.7114713E-1,1.0260324E0,4.3095565E-1,-2.8248814E-1,4.4822094E-1,1.1963801E0,-7.815537E-1,-7.873305E-1,7.7606255E-1,-1.2483201E0,-8.650183E-1,-5.84022E-1,9.448239E-1,1.2039884E0,-1.2799884E0,7.110558E-1,-1.2689738E0,1.1975023E0,5.80498E-1,2.9543692E-1,1.1760722E0,8.192288E-1,-1.0428749E0,1.1352544E0,-8.9944404E-1,-2.8983974E-1,6.776455E-1,-7.1749395E-1,-3.333689E-2,-1.7541529E-1,1.0416231E0,4.398205E-1,-1.008511E0,-6.7671335E-1,-1.1705108E0,-7.895291E-1,6.046674E-2,1.152781E0,-3.5980484E-1,1.2581495E0,3.1322148E-1,-3.880666E-2,8.407923E-1,8.3213776E-1,-9.627819E-1,1.2535777E0,1.6408186E-1,1.1970087E0,-9.297303E-1,6.0572952E-2,-1.1372464E0,4.9272516E-1,-6.512375E-1,8.58751E-1,1.4458932E-1,-1.0160581E0,-1.2486901E-1,6.090965E-1,-2.9932547E-1,-5.969142E-1,8.4958804E-1,2.443263E-1,1.3719304E0,-1.451153E-1,-1.17917E0,-2.5743666E-1,-8.266672E-1,-1.2053514E0,-1.1134142E-1,-4.450792E-1,-1.0886883E0,7.108062E-1,-6.855862E-1,1.2352502E0,3.897577E-1,1.3203331E0,3.6344278E-1,1.2550087E0,7.043276E-1,9.2051715E-1,-1.0750349E0,5.543252E-1,-9.7310203E-1,-1.0105528E0,8.8672763E-1,-1.8006724E0,3.3085102E-1,-1.1619449E0,1.4219388E-1,1.2298151E-1,-1.185153E0,-6.615571E-2,9.198296E-1,-1.2036554E0,1.9395079E-3,2.29686E-1,-1.1462159E0,-3.1504005E-1,1.2596376E0,1.1877356E0,-3.8763335E-1,1.4392114E0,9.7306356E-2,-8.6752826E-1,3.8837767E-1,-1.0868369E0,-3.500688E-1,-1.2525191E0,-8.953939E-1,6.4670765E-1,-8.984975E-1,-1.1930681E0,1.2870501E-1,-1.2189125E0,1.3707782E-1,1.0661293E0,-1.0348567E0,-9.181576E-1,7.223604E-1],"categories":[],"categories_nodes":[],"categories_segments":[],"categories_sizes":[],"default_left":[1,1,1,1,1,1,1,1,0,1,1,1,1,1,1,0,1,0,1,1,1,0,0,0,1,1,0,1,1,0,1,1,1,0,0,1,1,0,0,1,1,1,0,1,1,0,1,0,1,1,1,1,1,1,1,0,0,1,0,0,1,1,1,1,0,0,0,0,1,1,1,0,0,1,1,1,1,1,1,1,1,0,1,1,1,1,1,1,0,1,0,0,0,0,0,0,0,1,0,0,0,1,1,1,1,1,1,1,1,1,1,1,1,0,0,1,1,1,1,1,1,1,1,0,0,0,0,0,0,0,0,0,0,0,0,0,0,0,0,0,0,0,0,0,0,0,0,0,0,0,0,0,0,0,0,0,0,0,0,0,0,0,0,0,0,0,0,0,0],"id":3,"left_children":[1,3,5,7,9,11,13,15,-1,17,19,21,23,25,27,-1,29,-1,31,33,35,-1,-1,-1,37,39,-1,41,43,-1,45,47,49,-1,-1,51,53,-1,-1,55,57,59,-1,61,63,-1,65,-1,67,69,71,73,75,77,79,-1,-1,81,-1,-1,83,85,87,89,-1,-1,-1,-1,91,93,95,-1,-1,97,99,101,103,105,107,109,111,-1,113,115,117,119,121,123,-1,125,-1,-1,-1,-1,-1,-1,-1,127,-1,-1,-1,129,131,133,135,137,139,141,143,145,147,149,151,-1,-1,153,155,157,159,161,163,165,167,-1,-1,-1,-1,-1,-1,-1,-1,-1,-1,-1,-1,-1,-1,-1,-1,-1,-1,-1,-1,-1,-1,-1,-1,-1,-1,-1,-1,-1,-1,-1,-1,-1,-1,-1,-1,-1,-1,-1,-1,-1,-1,-1,-1,-1,-1],"loss_changes":[4.347979E2,8.787088E1,9.5831726E1,3.379181E0,8.165347E1,4.880604E0,1.00459045E2,8.5139465E-1,0E0,2.0907288E1,7.634723E1,4.3870163E-1,7.91668E0,5.5529613E1,3.9631134E1,0E0,1.7202759E-1,0E0,4.285385E0,5.983341E0,7.432137E1,0E0,0E0,0E0,1.968246E0,2.1405083E1,0E0,2.3218414E1,2.3841421E1,0E0,6.445116E0,4.5866394E-1,7.898015E0,0E0,0E0,2.1252602E1,2.4981493E1,0E0,0E0,6.72036E0,4.4514604E0,1.2170502E1,0E0,1.9586727E1,1.4371794E1,0E0,4.2844453E0,0E0,4.2510986E-2,2.1489487E0,5.8845234E0,1.961621E1,3.5334938E1,2.2425587E1,2.2565432E1,0E0,0E0,2.79526E0,0E0,0E0,1.8060333E1,1.689222E1,2.8798208E0,2.735672E-1,0E0,0E0,0E0,0E0,6.6360116E-1,4.559592E0,8.242607E-1,0E0,0E0,1.1839485E1,1.2798386E0,1.47695675E1,1.4117966E1,1.3211178E1,2.2866531E1,1.3617752E1,7.8647614E0,0E0,9.553118E-1,1.2683441E1,4.4269867E0,9.459461E0,1.5856827E1,2.6632309E-2,0E0,2.2749329E-1,0E0,0E0,0E0,0E0,0E0,0E0,0E0,1.4623947E0,0E0,0E0,0E0,1.2195894E1,1.4267623E1,6.644165E0,1.4586671E1,8.611958E0,7.082123E0,8.285701E0,2.5761967E1,1.0293662E1,4.8167305E0,6.623625E0,1.7294044E0,0E0,0E0,2.2199234E1,1.8297287E1,6.2654114E-1,3.587334E0,2.0130764E1,8.300697E0,1.1905581E1,5.660789E0,0E0,0E0,0E0,0E0,0E0,0E0,0E0,0E0,0E0,0E0,0E0,0E0,0E0,0E0,0E0,0E0,0E0,0E0,0E0,0E0,0E0,0E0,0E0,0E0,0E0,0E0,0E0,0E0,0E0,0E0,0E0,0E0,0E0,0E0,0E0,0E0,0E0,0E0,0E0,0E0,0E0,0E0,0E0,0E0,0E0,0E0],"parents":[2147483647,0,0,1,1,2,2,3,3,4,4,5,5,6,6,7,7,9,9,10,10,11,11,12,12,13,13,14,14,16,16,18,18,19,19,20,20,24,24,25,25,27,27,28,28,30,30,31,31,32,32,35,35,36,36,39,39,40,40,41,41,43,43,44,44,46,46,48,48,49,49,50,50,51,51,52,52,53,53,54,54,57,57,60,60,61,61,62,62,63,63,68,68,69,69,70,70,73,73,74,74,75,75,76,76,77,77,78,78,79,79,80,80,82,82,83,83,84,84,85,85,86,86,87,87,89,89,97,97,101,101,102,102,103,103,104,104,105,105,106,106,107,107,108,108,109,109,110,110,111,111,112,112,115,115,116,116,117,117,118,118,119,119,120,120,121,121,122,122],"right_children":[2,4,6,8,10,12,14,16,-1,18,20,22,24,26,28,-1,30,-1,32,34,36,-1,-1,-1,38,40,-1,42,44,-1,46,48,50,-1,-1,52,54,-1,-1,56,58,60,-1,62,64,-1,66,-1,68,70,72,74,76,78,80,-1,-1,82,-1,-1,84,86,88,90,-1,-1,-1,-1,92,94,96,-1,-1,98,100,102,104,106,108,110,112,-1,114,116,118,120,122,124,-1,126,-1,-1,-1,-1,-1,-1,-1,128,-1,-1,-1,130,132,134,136,138,140,142,144,146,148,150,152,-1,-1,154,156,158,160,162,164,166,168,-1,-1,-1,-1,-1,-1,-1,-1,-1,-1,-1,-1,-1,-1,-1,-1,-1,-1,-1,-1,-1,-1,-1,-1,-1,-1,-1,-1,-1,-1,-1,-1,-1,-1,-1,-1,-1,-1,-1,-1,-1,-1,-1,-1,-1,-1],"split_conditions":[-1.1864626E-2,1.2951523E-1,1.2951523E-1,7.985626E0,-1.8320149E0,-7.270661E-1,-1.8320059E0,-5.3904605E-1,-1.0023354E-1,-1.2334286E-1,5.6415293E-2,5.641533E-2,5.64153E-2,5.053284E-2,2.0571604E-2,7.320932E-2,-4.8827484E-2,-3.1193677E-1,5.6415297E-2,8.721497E-1,1.8605756E-2,3.5970345E-1,8.6889416E-2,-2.7743915E-1,9.4911784E-1,5.6415297E-2,-3.5066897E-1,5.6415483E-2,2.5515613E-1,3.6655524E-1,-4.419785E-1,2.0571603E-2,-6.6987604E-2,-3.7560004E-1,1.3667674E-1,6.619017E-2,3.2104656E-2,-6.4943634E-2,3.299083E-1,1.8687792E-2,2.0571604E-2,3.2076858E-2,3.780733E-1,2.0571608E-2,2.5515637E-1,3.569989E-1,-3.5401233E-2,9.033902E-2,3.2985777E-2,-1.3989913E-1,-1.3159424E-1,2.0571604E-2,2.0571604E-2,5.6415297E-2,2.9142214E-2,3.5891405E-1,-2.3446612E-1,-1.2885001E-1,2.3281877E-1,-3.7449604E-1,2.0571604E-2,1.7519856E-2,-6.8428986E-2,-6.784113E-2,-3.8399655E-1,2.1331675E-1,-3.8069215E-1,3.592507E-1,4.2905383E-2,-1.8098239E-2,-5.3355563E-2,2.4576865E-1,-3.128625E-1,-1.2068818E-2,-7.001755E-2,-3.6016577E-1,-8.944178E-3,-5.2055903E-3,-1.2512434E-1,-4.436267E-2,5.6415297E-2,1.3194616E-1,-1.1809395E-1,-1.0912956E-1,4.2396975E-1,-2.5987584E-2,-1.1033859E-2,-1.4399509E-1,-1.07941456E-1,2.5515628E-1,9.396645E-2,-1.1641998E-2,2.522377E-1,2.4964134E-1,-2.8883457E-1,3.7607333E-1,4.922456E-2,-9.914102E-2,-2.789191E-1,1.8171886E-2,-3.4117392E-1,-2.6851052E-2,-1.3141468E-1,1.4923227E-1,-1.5990946E-1,-1.1937035E-2,6.127766E-2,-1.4261633E-1,-8.8359326E-2,2.4051435E-2,2.0571604E-2,-1.4084528E-1,-1.2294624E-2,-4.353459E-2,-3.53751E-1,-1.2601508E-1,-1.3083665E-2,4.2923254E-1,-8.740584E-3,5.6415297E-2,4.706419E-2,7.4575213E-3,5.7585275E-1,3.7057507E-1,1.1692731E-1,3.9609995E-1,1.0903284E-1,3.7650263E-1,2.1129829E-1,2.7615514E-1,-3.2251048E-1,1.6629757E-1,-2.9193062E-1,-3.0316585E-1,2.660183E-1,-5.402017E-1,9.925531E-2,-3.4858346E-1,4.2658165E-2,3.6894456E-2,-3.555459E-1,-1.9846713E-2,2.7594888E-1,-3.6109662E-1,5.818524E-4,6.890581E-2,-3.438648E-1,-9.451202E-2,3.778913E-1,3.5632068E-1,-1.1629001E-1,4.3176344E-1,2.9191907E-2,-2.602585E-1,1.16513304E-1,-3.260511E-1,-1.0502065E-1,-3.7575576E-1,-2.686182E-1,1.940123E-1,-2.6954928E-1,-3.5792047E-1,3.8611505E-2,-3.6567375E-1,4.112335E-2,3.1983882E-1,-3.1045702E-1,-2.7544728E-1,2.1670812E-1],"split_indices":[1,0,0,13,2,0,2,11,0,13,3,3,12,8,6,0,0,0,3,8,9,0,0,0,14,3,0,3,2,0,8,6,8,0,0,13,8,0,0,14,7,9,0,6,2,0,1,0,8,8,11,5,6,3,9,0,0,11,0,0,7,14,14,14,0,0,0,0,9,1,14,0,0,1,14,8,9,14,14,13,3,0,14,14,8,13,1,11,0,2,0,0,0,0,0,0,0,11,0,0,0,14,11,4,11,1,13,14,14,9,6,11,11,0,0,14,14,11,1,3,13,13,14,0,0,0,0,0,0,0,0,0,0,0,0,0,0,0,0,0,0,0,0,0,0,0,0,0,0,0,0,0,0,0,0,0,0,0,0,0,0,0,0,0,0,0,0,0,0],"split_type":[0,0,0,0,0,0,0,0,0,0,0,0,0,0,0,0,0,0,0,0,0,0,0,0,0,0,0,0,0,0,0,0,0,0,0,0,0,0,0,0,0,0,0,0,0,0,0,0,0,0,0,0,0,0,0,0,0,0,0,0,0,0,0,0,0,0,0,0,0,0,0,0,0,0,0,0,0,0,0,0,0,0,0,0,0,0,0,0,0,0,0,0,0,0,0,0,0,0,0,0,0,0,0,0,0,0,0,0,0,0,0,0,0,0,0,0,0,0,0,0,0,0,0,0,0,0,0,0,0,0,0,0,0,0,0,0,0,0,0,0,0,0,0,0,0,0,0,0,0,0,0,0,0,0,0,0,0,0,0,0,0,0,0,0,0,0,0,0,0],"sum_hessian":[1.58414E3,8.7144495E2,7.126951E2,1.4703447E2,7.2441046E2,3.6983364E1,6.7571173E2,1.459547E2,1.0797828E0,1.3575781E2,5.8865265E2,2.8103363E1,8.879999E0,7.439369E1,6.0131805E2,1.5293458E0,1.4442534E2,4.002181E0,1.3175563E2,3.900183E1,5.496508E2,2.680117E1,1.3021939E0,2.753081E0,6.126918E0,5.8261257E1,1.6132433E1,4.522655E2,1.4905254E2,1.3122717E2,1.3198172E1,1.09767685E2,2.1987942E1,3.7317047E1,1.6847817E0,2.8403522E2,2.656156E2,1.0367504E0,5.0901675E0,4.914782E1,9.113437E0,4.483707E2,3.8948278E0,1.3426476E2,1.4787781E1,1.0661462E1,2.5367103E0,1.391364E0,1.0837632E2,1.6697153E1,5.290788E0,8.7420074E1,1.9661514E2,2.0613275E2,5.948284E1,4.8017796E1,1.1300247E0,7.664338E0,1.4490982E0,1.21648705E2,3.26722E2,1.2617896E2,8.085794E0,1.2839025E1,1.9487561E0,1.133462E0,1.4032482E0,1.0546218E2,2.9141378E0,4.565671E0,1.2131483E1,1.8293601E0,3.461428E0,8.3115776E1,4.304301E0,5.0088417E1,1.4652672E2,7.438332E1,1.3174942E2,2.9346012E1,3.013683E1,1.0194845E0,6.6448536E0,2.0411877E2,1.2260322E2,9.550151E1,3.0677448E1,7.0745196E0,1.0112748E0,1.1714317E1,1.1247078E0,1.114157E0,1.7999809E0,3.437872E0,1.1277989E0,1.1046713E1,1.0847707E0,8.1110466E1,2.0053098E0,1.0024818E0,3.3018186E0,1.5708995E1,3.4379425E1,1.089127E2,3.761402E1,4.898845E1,2.5394875E1,3.8198906E1,9.355052E1,2.109078E1,8.255233E0,9.337547E0,2.0799282E1,1.4020427E0,5.2428107E0,5.448724E1,1.4963153E2,1.1856509E2,4.038129E0,4.5546906E1,4.995461E1,1.6415342E1,1.4262107E1,5.825937E0,1.2485831E0,1.0508248E1,1.2060683E0,7.118323E1,9.9272375E0,1.2665763E1,3.0432324E0,7.0923495E0,2.7287075E1,1.0880971E0,1.078246E2,2.5294728E0,3.508455E1,4.350556E1,5.482888E0,2.1299852E1,4.0950227E0,1.2286421E1,2.5912483E1,2.262876E1,7.092176E1,8.652367E0,1.2438414E1,2.2100103E0,6.045222E0,3.392975E0,5.9445724E0,1.963378E1,1.1655028E0,2.7842003E1,2.6645237E1,9.5964935E1,5.3666595E1,1.0026611E2,1.8298977E1,2.1479843E0,1.8901448E0,1.930348E1,2.6243425E1,4.5162216E1,4.792392E0,1.39625845E1,2.4527566E0,1.25387745E1,1.7233326E0],"tree_param":{"num_deleted":"0","num_feature":"15","num_nodes":"169","size_leaf_vector":"0"}},{"base_weights":[-1.8621959E-3,6.1098504E-1,-3.2874584E-1,1.1298267E0,4.913629E-1,5.463597E-1,-4.435488E-1,2.2092324E-1,1.1385486E0,9.8932433E-1,3.5457888E-1,8.353173E-1,-1.0993328E0,1.1101074E0,-5.170514E-1,1.0371305E0,-7.902685E-1,-8.9218056E-1,4.5473224E-1,1.0550185E0,1.4144062E-1,1.1352661E0,2.0255865E-1,-3.71533E-1,-1.0252633E0,1.055298E0,-1.6011296E-1,-1.0921944E0,8.548107E-1,7.1206766E-1,2.4574165E-1,-2.2528967E-1,1.0887707E0,-6.380973E-1,4.7225928E-1,-1.4137238E-1,-6.1717856E-1,-1.0822937E0,1.1641927E0,2.3094743E-1,1.0805305E0,-1.1184893E0,-2.9210916E-1,-1.1358238E0,7.4219966E-1,5.7507116E-1,-2.6465919E-2,-6.8486715E-3,1.1176904E0,-1.0467849E0,6.976947E-1,-5.823643E-1,6.099803E-1,2.862709E-1,-3.4758276E-1,-1.0867828E0,-3.8716874E-1,-2.3887643E-1,-1.1158592E0,-4.2731237E-1,8.0001664E-1,1.1064031E0,3.9092115E-1,7.9433453E-1,-7.3205456E-2,7.4748975E-1,-5.943843E-1,-6.167318E-1,3.5844162E-1,-2.9298705E-1,7.303415E-1,-8.6329347E-1,5.858825E-1,-8.650903E-2,-9.0987396E-1,9.1600096E-1,-1.1242878E0,-5.540993E-1,4.4882007E-2,-9.452093E-1,4.3972403E-1,-1.1460516E0,-7.239828E-1,3.069145E-1,1.1141182E0,-5.3283846E-1,8.6858493E-1,1.0273957E0,6.3557595E-1,-9.1888237E-1,7.976885E-1,8.5271543E-1,-4.355518E-1,-1.3204185E0,-1.0260224E-1,3.9598688E-1,-8.6030024E-1,-1.1178539E0,4.8464605E-1,1.0228237E0,1.7318754E-1,-1.0750303E0,5.301654E-1,8.956109E-1,8.567865E-2,3.5041064E-1,-5.7094187E-1,-1.3140944E0,-1.6326877E-1,-1.1451573E0,-5.3057295E-1,-4.3082634E-1,-1.2390907E0,5.656166E-1,-4.346137E-1,9.915268E-1,-3.975768E-1,-3.5200962E-1,-1.1539716E0,-1.1483753E0,1.2221497E0,1.1384757E0,6.320073E-1,1.1831479E0,5.2525926E-1,8.409033E-1,-4.2326415E-1,-1.0415533E0,-2.5914323E-1,1.4993688E-1,9.4756335E-1,3.4158316E-1,1.0815248E0,9.9856365E-1,-1.0707506E0,-6.8156505E-1,6.749413E-1,7.324342E-1,-8.1899583E-1,-1.0818893E0,5.492524E-1,1.9648889E-1,-1.5948588E0,-1.023597E0,6.0617614E-1,8.163039E-1,-3.8492608E-1,-1.1666719E0,-4.1180277E-1,-2.1693832E-1,1.0313792E0,-3.893184E-2,1.2192941E0,-3.8307127E-1,1.0832732E0,-1.2571093E0,5.190663E-1,-5.0673136E-3,-8.7109476E-1,-4.0927598E-1,-1.3824657E0,-5.2162623E-1,1.352422E0,3.5533318E-1,-9.1804826E-1,6.280587E-2,-7.1308845E-1,7.984636E-1,-2.4396506E-1,-3.650734E-2,-1.1588835E0,-8.0625314E-1,-1.1747499E0],"categories":[],"categories_nodes":[],"categories_segments":[],"categories_sizes":[],"default_left":[1,1,1,1,1,1,1,0,0,1,1,1,0,1,1,1,0,1,1,1,1,0,0,1,1,1,0,1,0,1,1,0,1,1,1,1,1,1,0,1,1,0,0,0,1,1,1,0,0,0,0,0,1,1,1,1,1,1,1,0,0,1,1,1,1,1,1,1,1,0,1,1,1,1,1,0,1,1,1,0,1,1,1,0,1,0,0,1,1,1,1,1,1,0,1,1,1,1,1,0,1,1,1,1,1,1,1,1,1,0,1,1,0,1,1,0,0,0,1,0,0,0,0,0,0,0,0,0,0,0,0,0,0,0,0,0,0,0,0,0,0,0,0,0,0,0,0,0,0,0,0,0,0,0,0,0,0,0,0,0,0,0,0,0,0,0,0,0,0,0,0,0,0],"id":4,"left_children":[1,3,5,7,9,11,13,-1,-1,15,17,19,-1,21,23,25,-1,27,29,31,33,-1,-1,35,37,39,-1,41,-1,43,45,-1,47,49,51,53,55,57,-1,59,61,-1,-1,-1,63,65,67,-1,-1,-1,-1,-1,69,71,73,75,77,79,81,-1,-1,83,85,87,89,91,93,95,97,-1,99,101,103,105,107,-1,109,111,113,-1,115,117,119,-1,121,-1,-1,123,125,127,129,131,133,-1,135,137,139,141,143,-1,145,147,149,151,153,155,157,159,161,-1,163,165,-1,167,169,-1,-1,-1,171,-1,-1,-1,-1,-1,-1,-1,-1,-1,-1,-1,-1,-1,-1,-1,-1,-1,-1,-1,-1,-1,-1,-1,-1,-1,-1,-1,-1,-1,-1,-1,-1,-1,-1,-1,-1,-1,-1,-1,-1,-1,-1,-1,-1,-1,-1,-1,-1,-1,-1,-1,-1,-1,-1],"loss_changes":[2.7346506E2,2.8915741E1,8.967926E1,4.476242E-1,2.6052834E1,5.0227146E1,9.0509415E1,0E0,0E0,7.8788757E0,3.8573517E1,1.3383705E1,0E0,5.8955765E-1,5.5280518E1,1.9359665E0,0E0,8.993515E0,1.5077267E1,3.152214E0,6.104592E0,0E0,0E0,3.308239E1,2.2108704E1,1.417717E0,0E0,1.1792183E-1,0E0,7.890663E0,1.4181817E1,0E0,2.0897675E0,4.6227007E0,2.7333493E0,2.6923763E1,3.020063E1,4.3549347E0,0E0,1.7100567E0,9.5027924E-1,0E0,0E0,0E0,5.378273E0,1.4872339E1,2.0094797E1,0E0,0E0,0E0,0E0,0E0,1.8410149E0,3.4778534E1,3.011436E1,7.989258E0,1.3861237E1,4.0203505E0,1.0246277E0,0E0,0E0,1.15448E-1,2.381794E0,3.7023468E0,6.9462824E0,8.189613E0,3.3461797E0,8.947815E0,1.0524404E1,0E0,2.022132E0,6.759181E0,1.2244726E1,3.016343E1,1.943544E1,0E0,5.248413E-1,1.1157398E1,1.382661E1,0E0,2.4816601E0,4.9812317E-1,1.2905972E1,0E0,1.3845825E-1,0E0,0E0,2.9817734E0,1.6148155E1,1.14078045E-1,3.1337166E-1,6.415169E0,6.345164E0,0E0,3.5651462E0,3.645252E0,9.47843E0,3.1484785E0,9.795832E0,0E0,2.4138956E0,6.464138E-1,1.5106742E0,1.4873192E1,1.515412E1,2.1000477E1,1.1462513E1,2.0385742E0,1.3747608E1,0E0,2.0311809E0,1.6607561E1,0E0,5.1918955E0,8.285416E0,0E0,0E0,0E0,7.836914E-2,0E0,0E0,0E0,0E0,0E0,0E0,0E0,0E0,0E0,0E0,0E0,0E0,0E0,0E0,0E0,0E0,0E0,0E0,0E0,0E0,0E0,0E0,0E0,0E0,0E0,0E0,0E0,0E0,0E0,0E0,0E0,0E0,0E0,0E0,0E0,0E0,0E0,0E0,0E0,0E0,0E0,0E0,0E0,0E0,0E0,0E0,0E0,0E0,0E0,0E0,0E0,0E0,0E0,0E0],"parents":[2147483647,0,0,1,1,2,2,3,3,4,4,5,5,6,6,9,9,10,10,11,11,13,13,14,14,15,15,17,17,18,18,19,19,20,20,23,23,24,24,25,25,27,27,29,29,30,30,32,32,33,33,34,34,35,35,36,36,37,37,39,39,40,40,44,44,45,45,46,46,52,52,53,53,54,54,55,55,56,56,57,57,58,58,61,61,62,62,63,63,64,64,65,65,66,66,67,67,68,68,70,70,71,71,72,72,73,73,74,74,76,76,77,77,78,78,80,80,81,81,82,82,84,84,87,87,88,88,89,89,90,90,91,91,92,92,94,94,95,95,96,96,97,97,98,98,100,100,101,101,102,102,103,103,104,104,105,105,106,106,107,107,108,108,110,110,111,111,113,113,114,114,118,118],"right_children":[2,4,6,8,10,12,14,-1,-1,16,18,20,-1,22,24,26,-1,28,30,32,34,-1,-1,36,38,40,-1,42,-1,44,46,-1,48,50,52,54,56,58,-1,60,62,-1,-1,-1,64,66,68,-1,-1,-1,-1,-1,70,72,74,76,78,80,82,-1,-1,84,86,88,90,92,94,96,98,-1,100,102,104,106,108,-1,110,112,114,-1,116,118,120,-1,122,-1,-1,124,126,128,130,132,134,-1,136,138,140,142,144,-1,146,148,150,152,154,156,158,160,162,-1,164,166,-1,168,170,-1,-1,-1,172,-1,-1,-1,-1,-1,-1,-1,-1,-1,-1,-1,-1,-1,-1,-1,-1,-1,-1,-1,-1,-1,-1,-1,-1,-1,-1,-1,-1,-1,-1,-1,-1,-1,-1,-1,-1,-1,-1,-1,-1,-1,-1,-1,-1,-1,-1,-1,-1,-1,-1,-1,-1,-1,-1],"split_conditions":[-1.293057E-2,-4.8827484E-2,2.5515607E-1,-4.529081E-1,2.5515425E-1,5.053284E-2,-7.270661E-1,6.6276975E-2,3.415646E-1,1.295761E-1,5.6415293E-2,5.6415297E-2,-3.2979986E-1,2.5806898E-1,2.0571604E-2,5.641538E-2,-2.3708056E-1,1.2516141E0,-1.3326885E-1,2.0571603E-2,9.130433E-3,3.4057984E-1,6.07676E-2,-1.1240857E-2,5.6415435E-2,2.0571603E-2,-4.803389E-2,2.2603378E-1,2.5644323E-1,-1.7009217E-1,7.699308E-2,-6.7586906E-2,-6.124135E-1,2.0571604E-2,-1.2865506E-2,6.3566975E-3,4.0331315E-2,-3.1753373E-1,3.4925783E-1,5.6415427E-2,-1.3573658E-2,-3.355468E-1,-8.763275E-2,-3.4074718E-1,2.0571604E-2,2.852752E-2,1.6363898E-1,-2.0546014E-3,3.3530715E-1,-3.1403548E-1,2.0930843E-1,-1.747093E-1,4.1909935E-3,2.9287873E-2,-4.1955836E-2,2.0571603E-2,2.0571604E-2,-3.9058074E-1,2.551561E-1,-1.2819372E-1,2.40005E-1,-1.7745546E-1,3.6494773E-2,1.1849981E-1,1.02729164E-1,2.0571604E-2,2.9067956E-2,-1.2272239E-1,-1.2657447E-1,-8.7896116E-2,-6.3883126E-2,7.588811E-2,4.2716283E-2,-1.2479298E-1,-2.4698377E-2,2.748003E-1,5.6415316E-2,2.5515616E-1,-6.944341E-2,-2.835628E-1,-9.161776E-3,-1.2690824E-2,2.6910132E-1,9.207436E-2,1.9023982E-1,-1.5985155E-1,2.605755E-1,-1.3730841E-2,-1.5529753E-2,3.203851E-2,2.5012333E-2,-5.956582E-2,-2.190087E-2,-3.9612556E-1,-1.3074751E-2,-1.2753393E-1,-4.151354E-2,-2.4468357E-2,2.5515598E-1,3.0684713E-1,-1.3005981E-1,6.007142E-2,2.6824035E-2,5.6415297E-2,4.317453E-2,-1.7100945E-1,3.2577306E-2,-4.021489E-2,4.6742942E-2,-3.4354722E-1,5.641532E-2,-1.2077691E-1,-3.7172723E-1,-5.8191E-2,5.6848586E-2,2.9745805E-1,-1.19273044E-1,-1.0560289E-1,2.0571604E-2,-3.4451258E-1,3.6664492E-1,3.4154272E-1,1.896022E-1,3.5494438E-1,1.5757778E-1,2.52271E-1,-1.2697925E-1,-3.12466E-1,-7.774297E-2,4.4981066E-2,2.84269E-1,1.0247495E-1,3.2445747E-1,2.995691E-1,-3.212252E-1,-2.0446952E-1,2.024824E-1,2.1973027E-1,-2.4569876E-1,-3.2456678E-1,1.6477573E-1,5.894667E-2,-4.7845766E-1,-3.070791E-1,1.8185285E-1,2.4489118E-1,-1.1547783E-1,-3.5000157E-1,-1.2354083E-1,-6.50815E-2,3.094138E-1,-1.16795525E-2,3.6578822E-1,-1.1492138E-1,3.2498196E-1,-3.771328E-1,1.5571989E-1,-1.5201941E-3,-2.6132843E-1,-1.227828E-1,-4.1473973E-1,-1.5648788E-1,4.057266E-1,1.0659996E-1,-2.754145E-1,1.8841762E-2,-2.1392654E-1,2.3953909E-1,-7.318952E-2,-1.0952202E-2,-3.4766504E-1,-2.4187595E-1,-3.5242498E-1],"split_indices":[1,0,2,11,2,8,0,0,0,8,3,3,0,14,7,3,0,8,11,7,13,0,0,1,3,6,0,8,0,14,13,0,8,7,1,13,9,13,0,12,8,0,0,0,5,9,13,0,0,0,0,0,9,9,8,5,6,13,2,0,0,14,9,13,8,5,9,14,14,0,8,14,9,11,14,0,3,2,13,0,1,1,11,0,14,0,0,1,1,9,9,14,8,0,1,11,8,1,2,0,11,10,9,3,8,11,13,8,9,0,3,13,0,14,9,0,0,0,5,0,0,0,0,0,0,0,0,0,0,0,0,0,0,0,0,0,0,0,0,0,0,0,0,0,0,0,0,0,0,0,0,0,0,0,0,0,0,0,0,0,0,0,0,0,0,0,0,0,0,0,0,0,0],"split_type":[0,0,0,0,0,0,0,0,0,0,0,0,0,0,0,0,0,0,0,0,0,0,0,0,0,0,0,0,0,0,0,0,0,0,0,0,0,0,0,0,0,0,0,0,0,0,0,0,0,0,0,0,0,0,0,0,0,0,0,0,0,0,0,0,0,0,0,0,0,0,0,0,0,0,0,0,0,0,0,0,0,0,0,0,0,0,0,0,0,0,0,0,0,0,0,0,0,0,0,0,0,0,0,0,0,0,0,0,0,0,0,0,0,0,0,0,0,0,0,0,0,0,0,0,0,0,0,0,0,0,0,0,0,0,0,0,0,0,0,0,0,0,0,0,0,0,0,0,0,0,0,0,0,0,0,0,0,0,0,0,0,0,0,0,0,0,0,0,0,0,0,0,0],"sum_hessian":[1.3630721E3,4.7383978E2,8.8923236E2,8.7196045E1,3.8664374E2,1.0269124E2,7.865411E2,1.0790615E0,8.611698E1,8.197638E1,3.0466736E2,8.777225E1,1.4918992E1,3.489284E1,7.5164825E2,8.023811E1,1.7382678E0,2.2066332E1,2.82601E2,6.626907E1,2.1503174E1,3.3707493E1,1.1853491E0,5.856794E2,1.6596889E2,7.915555E1,1.0825648E0,2.0135796E1,1.9305365E0,1.25572815E2,1.570282E2,1.556382E0,6.471269E1,6.1298885E0,1.5373284E1,3.0318347E2,2.824959E2,1.6224835E2,3.7205284E0,2.6524634E0,7.650308E1,1.9109777E1,1.0260181E0,1.4259992E0,1.2414682E2,7.055494E1,8.647327E1,1.6838279E0,6.3028866E1,4.8594856E0,1.2704031E0,1.4027579E0,1.3970527E1,9.850777E1,2.0467569E2,9.165061E1,1.908453E2,6.5205092E0,1.5572784E2,1.345346E0,1.3071175E0,7.31541E1,3.348987E0,1.1671051E2,7.4363093E0,6.180374E1,8.751201E0,3.3893864E1,5.25794E1,1.4744762E0,1.249605E1,1.9977133E1,7.853063E1,1.4056483E2,6.411086E1,1.2541636E0,9.039645E1,1.3745473E2,5.3390575E1,3.0024707E0,3.5180387E0,1.4280104E2,1.2926807E1,1.0889882E0,7.206511E1,1.1020973E0,2.2468896E0,4.507212E1,7.163839E1,3.7448256E0,3.691484E0,5.7012028E1,4.7917113E0,2.8534987E0,5.8977013E0,6.4499965E0,2.7443869E1,3.5220556E0,4.9057343E1,7.6462665E0,4.849784E0,1.7540384E1,2.436748E0,4.8011307E1,3.0519325E1,7.405226E1,6.651257E1,4.109919E1,2.3011671E1,8.642957E1,3.9668725E0,1.17871254E2,1.958348E1,2.5508566E1,2.788201E1,2.0095267E0,1.5085119E0,1.8590919E0,1.4094194E2,1.0949071E1,1.9777359E0,6.730332E1,4.76179E0,3.3366337E1,1.1705784E1,6.0175213E1,1.1463175E1,2.6696796E0,1.0751458E0,1.0695263E0,2.6219578E0,1.8400494E1,3.8611538E1,1.2952671E0,3.4964442E0,3.4512985E0,2.446403E0,5.3622737E0,1.0877225E0,2.3916533E1,3.527336E0,1.0944518E0,2.4276037E0,3.1046443E0,4.5952698E1,2.0383692E0,2.8114147E0,1.474403E1,2.7963545E0,1.2061013E0,1.2306466E0,1.2577383E1,3.543392E1,2.1182217E1,9.337109E0,6.418772E0,6.7633484E1,2.340477E1,4.3107803E1,3.37823E0,3.772096E1,1.9141798E1,3.8698733E0,1.2323073E0,2.7345653E0,4.316314E1,7.4708115E1,1.9821402E1,5.6871653E0,1.8670109E1,9.211901E0,1.019161E1,1.3075034E2],"tree_param":{"num_deleted":"0","num_feature":"15","num_nodes":"173","size_leaf_vector":"0"}},{"base_weights":[-2.6302577E-3,3.4351867E-1,-4.2977598E-1,1.0831821E0,2.375863E-1,8.252552E-1,-4.9438027E-1,1.9030373E-1,1.0924002E0,8.6361593E-1,1.16560444E-1,1.2024282E-1,9.604587E-1,3.5666424E-1,-5.871756E-1,-8.4803146E-1,9.2326564E-1,-9.50992E-1,1.8197718E-1,-4.4079256E-1,8.2050425E-1,2.4147052E-2,1.0059973E0,7.386914E-1,-1.0229919E0,-7.245462E-1,-2.1878304E-1,1.1005265E0,6.413661E-1,-1.0890143E0,7.681848E-1,4.312149E-1,-6.387057E-2,2.2784235E-1,-8.400244E-1,1.0315081E0,3.416391E-1,9.80849E-1,-3.5447794E-1,-1.0842443E0,-6.0144234E-1,-8.897382E-2,-9.8928565E-1,1.0495994E-1,9.1901803E-1,-2.45768E-1,-1.1129673E0,8.1398475E-1,2.926865E-1,-1.7221466E-1,3.3484668E-1,1.0589483E0,-6.8328655E-1,-6.068604E-1,6.319807E-1,-2.1612789E-1,-1.0968091E0,-2.0662494E-1,-7.3868006E-1,-6.306733E-1,9.753185E-2,-1.062239E0,-2.1490392E-1,5.47589E-1,-8.4986305E-1,9.959377E-1,-4.258788E-1,9.112295E-1,-7.791879E-1,-1.4708564E-1,4.7202012E-1,-7.3412806E-2,-9.245978E-1,-2.1902585E-1,7.4050194E-1,-9.01061E-1,8.120421E-3,8.222999E-2,-8.7092566E-1,-9.67443E-1,-3.7543854E-1,-8.680447E-1,3.9311227E-1,5.3166527E-1,-9.999698E-2,-5.963109E-1,7.5059515E-1,-1.4878448E0,6.0952395E-1,5.398793E-2,1.0723257E0,9.631214E-1,-6.8047655E-1,3.7987433E-2,-1.1630392E0,6.0511315E-1,8.788506E-2,1.1759805E-1,-4.7097975E-1,-1.0443498E0,6.272296E-1,4.985977E-1,-5.6635094E-1,2.6672171E-2,9.820861E-1,3.86903E-1,-3.8209707E-1,-1.040264E0,3.0007982E-1,-9.8486495E-1,-2.3429597E-2,-5.679229E-1,-1.1299843E0,4.2542863E-1,-7.3018765E-1,-1.0999655E0,1.8974863E-1,1.0627979E0,-8.2364583E-1,9.8843443E-1,1.4609013E-1,-5.4996425E-1,5.502156E-1,9.1897583E-1,-2.5426403E-1,1.0461783E0,3.505757E-1,4.2394808E-1,-2.116625E-1,-9.4751245E-1,6.339912E-1,5.44707E-1,-5.534156E-1,2.3067947E-1,-1.0252923E0,1.6651861E-1,-9.098714E-1,-1.1491711E0,4.009264E-1,1.0090483E0,-1.4439921E-1,-8.9682287E-1,5.297606E-1,-3.142988E-1,8.718096E-1,1.0895654E0,1.4764713E-1,-3.1893265E-1,-1.1206937E0,-2.4153954E-1,8.9584786E-1,-1.0964376E0,-3.6182472E-1,5.958347E-1,-6.7454654E-1,4.8968035E-1,-1.1473675E0,8.0226463E-1,-5.565419E-1,-8.001354E-1,5.302419E-1,9.3180585E-1,-4.188871E-1,1.3207996E0,4.3939447E-1,1.1333404E0,1.6870928E-1,4.1995373E-1,-1.0507922E0,-1.3934197E0,-1.1947148E-1,1.1274619E0,-2.175364E-1],"categories":[],"categories_nodes":[],"categories_segments":[],"categories_sizes":[],"default_left":[1,1,1,1,1,1,1,0,0,1,1,1,1,1,1,0,1,1,1,1,0,0,1,1,0,1,1,0,1,1,0,1,1,0,0,0,0,1,1,1,1,1,1,1,1,0,0,1,1,1,1,0,0,1,0,0,0,1,1,1,1,0,0,1,1,1,0,1,0,1,1,1,1,1,1,0,1,1,1,1,1,1,1,1,1,0,1,0,0,0,0,1,0,1,0,1,1,1,1,1,0,1,1,1,1,0,0,1,1,1,1,1,0,1,1,0,1,1,0,1,1,1,1,0,0,0,0,0,0,0,0,0,0,0,0,0,0,0,0,0,0,0,0,0,0,0,0,0,0,0,0,0,0,0,0,0,0,0,0,0,0,0,0,0,0,0,0,0,0,0,0,0,0],"id":5,"left_children":[1,3,5,7,9,11,13,-1,-1,15,17,19,21,23,25,-1,27,29,31,33,-1,-1,35,37,-1,39,41,-1,43,45,-1,47,49,-1,-1,-1,-1,51,53,55,57,59,61,63,65,-1,-1,67,69,71,73,-1,-1,75,-1,-1,-1,77,79,81,83,-1,-1,85,87,89,-1,91,-1,93,95,97,99,101,103,-1,105,107,109,111,113,115,117,119,121,-1,123,-1,-1,-1,-1,125,-1,127,-1,129,131,133,135,137,-1,139,141,143,145,-1,-1,147,149,151,153,155,-1,157,159,-1,161,163,-1,165,167,169,171,-1,-1,-1,-1,-1,-1,-1,-1,-1,-1,-1,-1,-1,-1,-1,-1,-1,-1,-1,-1,-1,-1,-1,-1,-1,-1,-1,-1,-1,-1,-1,-1,-1,-1,-1,-1,-1,-1,-1,-1,-1,-1,-1,-1,-1,-1,-1,-1,-1,-1],"loss_changes":[1.7476329E2,5.089997E1,4.330655E1,4.6298218E-1,4.326663E1,2.3891983E0,3.999681E1,0E0,0E0,1.0234573E1,3.3751064E1,2.4719615E0,9.097004E-1,2.719073E1,2.2849869E1,0E0,3.7881165E0,7.4621296E0,2.7839523E1,1.1611121E0,0E0,0E0,1.203537E-3,1.0899273E1,0E0,1.3992813E1,1.2406424E1,0E0,5.4314117E0,2.568798E-1,0E0,1.17198715E1,9.966164E0,0E0,0E0,0E0,0E0,4.9990597E0,2.366015E0,6.692047E-1,1.3320137E1,1.0973665E1,7.836628E-1,6.2927313E0,2.9408646E0,0E0,0E0,9.907734E0,1.3252104E1,1.33886595E1,1.1250071E1,0E0,0E0,1.2468319E0,0E0,0E0,0E0,1.2644936E1,1.4936829E1,7.096366E0,7.0174212E0,0E0,0E0,2.776538E0,5.3379335E0,1.6194363E0,0E0,5.314949E0,0E0,9.291454E0,6.0293407E0,1.2288903E1,4.543804E0,5.67486E0,4.925597E0,0E0,6.2198776E-1,1.1702869E1,1.9027328E0,6.6534805E0,2.098903E1,5.820944E0,5.6993637E0,4.3561954E0,1.6879194E1,0E0,1.7497344E0,0E0,0E0,0E0,0E0,2.433773E0,0E0,4.191634E0,0E0,4.5547943E0,9.612839E0,1.4403151E1,1.483504E1,3.460659E0,0E0,2.6361923E0,5.925662E0,2.6625187E0,1.7606888E0,0E0,0E0,9.47876E-2,1.3054601E1,8.236389E-1,1.7679617E0,2.1703018E1,0E0,8.948172E0,4.9037933E0,0E0,2.633473E0,1.0401869E-1,0E0,1.1776171E0,5.3680286E0,1.2173572E1,1.0736525E1,0E0,0E0,0E0,0E0,0E0,0E0,0E0,0E0,0E0,0E0,0E0,0E0,0E0,0E0,0E0,0E0,0E0,0E0,0E0,0E0,0E0,0E0,0E0,0E0,0E0,0E0,0E0,0E0,0E0,0E0,0E0,0E0,0E0,0E0,0E0,0E0,0E0,0E0,0E0,0E0,0E0,0E0,0E0,0E0,0E0,0E0,0E0,0E0,0E0,0E0],"parents":[2147483647,0,0,1,1,2,2,3,3,4,4,5,5,6,6,9,9,10,10,11,11,12,12,13,13,14,14,16,16,17,17,18,18,19,19,22,22,23,23,25,25,26,26,28,28,29,29,31,31,32,32,37,37,38,38,39,39,40,40,41,41,42,42,43,43,44,44,47,47,48,48,49,49,50,50,53,53,57,57,58,58,59,59,60,60,63,63,64,64,65,65,67,67,69,69,70,70,71,71,72,72,73,73,74,74,76,76,77,77,78,78,79,79,80,80,81,81,82,82,83,83,84,84,86,86,91,91,93,93,95,95,96,96,97,97,98,98,99,99,101,101,102,102,103,103,104,104,107,107,108,108,109,109,110,110,111,111,113,113,114,114,116,116,117,117,119,119,120,120,121,121,122,122],"right_children":[2,4,6,8,10,12,14,-1,-1,16,18,20,22,24,26,-1,28,30,32,34,-1,-1,36,38,-1,40,42,-1,44,46,-1,48,50,-1,-1,-1,-1,52,54,56,58,60,62,64,66,-1,-1,68,70,72,74,-1,-1,76,-1,-1,-1,78,80,82,84,-1,-1,86,88,90,-1,92,-1,94,96,98,100,102,104,-1,106,108,110,112,114,116,118,120,122,-1,124,-1,-1,-1,-1,126,-1,128,-1,130,132,134,136,138,-1,140,142,144,146,-1,-1,148,150,152,154,156,-1,158,160,-1,162,164,-1,166,168,170,172,-1,-1,-1,-1,-1,-1,-1,-1,-1,-1,-1,-1,-1,-1,-1,-1,-1,-1,-1,-1,-1,-1,-1,-1,-1,-1,-1,-1,-1,-1,-1,-1,-1,-1,-1,-1,-1,-1,-1,-1,-1,-1,-1,-1,-1,-1,-1,-1,-1,-1],"split_conditions":[-1.1899974E-2,-4.8827484E-2,1.2951523E-1,-4.529081E-1,2.5515425E-1,2.0571603E-2,-1.8320059E0,5.709112E-2,3.2772008E-1,-1.2334286E-1,5.6415293E-2,3.891155E-1,-4.348547E-1,5.053284E-2,2.0571604E-2,-2.5440946E-1,-1.3471904E-1,1.2516141E0,1.7820757E-2,-1.5953633E-1,2.4615128E-1,7.244116E-3,2.551569E-1,5.6415297E-2,-3.0689758E-1,3.2683577E-2,2.0571604E-2,3.3015794E-1,-1.2707675E-1,-7.035942E-1,2.3045544E-1,6.633525E-2,3.2104656E-2,6.835271E-2,-2.5200734E-1,3.0945244E-1,1.0249174E-1,1.8687792E-2,2.0571604E-2,-1.6456357E-1,-1.09229386E-1,3.6506712E-2,5.6415297E-2,1.2636224E-2,-3.0637829E-2,-7.37304E-2,-3.338902E-1,2.0571604E-2,2.0571604E-2,-7.445626E-2,2.0571604E-2,3.176845E-1,-2.0498598E-1,6.0071424E-2,1.8959422E-1,-6.483837E-2,-3.2904276E-1,-1.0299149E-1,-1.7521143E-2,4.706419E-2,-7.200479E-2,-3.1867173E-1,-6.447118E-2,-1.0193968E-1,6.0071424E-2,-4.8858166E-2,-1.2776364E-1,-1.2068818E-2,-2.3375638E-1,4.166499E-3,-7.010727E-3,-4.2895973E-2,4.6113357E-2,-1.1001603E-1,2.7214859E-2,-2.703183E-1,3.2582022E-2,-4.671903E-3,2.0571606E-2,-1.218392E-1,-1.04006585E-2,-7.132949E-2,-8.2279176E-2,-9.151018E-3,-1.7089095E-2,-1.7889328E-1,-1.4233907E-2,-4.4635347E-1,1.8285719E-1,1.619638E-2,3.216977E-1,-9.914102E-2,-2.0414297E-1,-3.6016577E-1,-3.4891176E-1,1.4923227E-1,9.874731E-2,6.2648475E-2,1.5975313E-2,1.4262354E-1,1.8816888E-1,-1.3478872E-1,3.969565E-1,-2.8314322E-2,2.2282526E-2,1.16070904E-1,-1.1462913E-1,-1.1780653E-2,-1.2414363E-1,5.6415312E-2,5.64153E-2,1.5644911E-1,-3.3899528E-1,-5.6495806E-3,2.9204357E-1,-3.2998964E-1,-1.161902E-2,5.6415297E-2,-2.4709375E-1,8.043174E-2,-1.0250425E-1,-1.2836921E-1,-1.2084525E-1,2.7569276E-1,-7.627921E-2,3.138535E-1,1.0517271E-1,1.2718444E-1,-6.349875E-2,-2.8425375E-1,1.9019736E-1,1.6341211E-1,-1.6602468E-1,6.9203846E-2,-3.0758768E-1,4.9955588E-2,-2.7296144E-1,-3.4475136E-1,1.2027793E-1,3.0271453E-1,-4.3319765E-2,-2.6904687E-1,1.5892819E-1,-9.4289646E-2,2.615429E-1,3.2686964E-1,4.429414E-2,-9.56798E-2,-3.362081E-1,-7.2461866E-2,2.6875436E-1,-3.2893127E-1,-1.0854742E-1,1.7875041E-1,-2.0236397E-1,1.4690411E-1,-3.4421027E-1,2.406794E-1,-1.6696258E-1,-2.4004062E-1,1.5907258E-1,2.7954176E-1,-1.2566614E-1,3.962399E-1,1.3181835E-1,3.4000212E-1,5.0612785E-2,1.2598613E-1,-3.1523767E-1,-4.1802594E-1,-3.5841446E-2,3.382386E-1,-6.5260924E-2],"split_indices":[1,0,0,11,2,6,2,0,0,13,3,9,13,8,6,0,11,8,9,14,0,0,2,3,0,9,7,0,11,13,0,13,8,0,0,0,0,14,7,14,14,9,3,9,8,0,0,5,6,11,6,0,0,10,0,0,0,11,14,13,13,0,0,14,10,9,0,1,0,9,9,8,9,14,9,0,9,8,5,13,1,11,14,1,14,0,1,0,0,0,0,11,0,8,0,4,13,13,13,14,0,11,8,13,13,0,0,1,14,3,12,8,0,13,9,0,1,3,0,9,13,11,11,0,0,0,0,0,0,0,0,0,0,0,0,0,0,0,0,0,0,0,0,0,0,0,0,0,0,0,0,0,0,0,0,0,0,0,0,0,0,0,0,0,0,0,0,0,0,0,0,0,0],"split_type":[0,0,0,0,0,0,0,0,0,0,0,0,0,0,0,0,0,0,0,0,0,0,0,0,0,0,0,0,0,0,0,0,0,0,0,0,0,0,0,0,0,0,0,0,0,0,0,0,0,0,0,0,0,0,0,0,0,0,0,0,0,0,0,0,0,0,0,0,0,0,0,0,0,0,0,0,0,0,0,0,0,0,0,0,0,0,0,0,0,0,0,0,0,0,0,0,0,0,0,0,0,0,0,0,0,0,0,0,0,0,0,0,0,0,0,0,0,0,0,0,0,0,0,0,0,0,0,0,0,0,0,0,0,0,0,0,0,0,0,0,0,0,0,0,0,0,0,0,0,0,0,0,0,0,0,0,0,0,0,0,0,0,0,0,0,0,0,0,0,0,0,0,0],"sum_hessian":[1.1799843E3,6.518975E2,5.280868E2,8.0511024E1,5.713865E2,2.5276686E1,5.028101E2,1.0438856E0,7.946714E1,9.157276E1,4.7981372E2,4.37144E0,2.0905247E1,4.9155113E1,4.5365497E2,2.6386857E0,8.8934074E1,2.6922417E1,4.528913E2,2.632695E0,1.7387451E0,1.0405778E0,1.9864668E1,3.8859497E1,1.0295615E1,3.297333E2,1.23921646E2,5.2817806E1,3.6116272E1,2.5260925E1,1.6614919E0,2.2452074E2,2.2837056E2,1.144745E0,1.48795E0,1.8597874E1,1.2667952E0,3.1896564E1,6.9629345E0,8.208397E1,2.4764935E2,1.0700897E2,1.691268E1,1.2788245E1,2.3328026E1,1.0087714E0,2.4252153E1,5.8367798E1,1.6615294E2,1.8002121E2,4.8349354E1,3.0814102E1,1.0824604E0,5.850835E0,1.1120993E0,1.4308048E0,8.065316E1,6.452472E1,1.8312463E2,2.6796873E1,8.02121E1,1.5116808E1,1.795872E0,9.029115E0,3.7591307E0,2.231143E1,1.016597E0,5.541349E1,2.9543047E0,4.818086E1,1.17972084E2,1.600953E2,1.9925896E1,2.0634932E1,2.7714424E1,3.6429267E0,2.2079084E0,4.5581093E1,1.8943623E1,1.1134081E2,7.178382E1,2.1876741E1,4.920132E0,2.4554379E1,5.565772E1,1.0688579E0,7.9602566E0,2.6021073E0,1.1570233E0,1.8016721E0,2.0509758E1,5.404642E1,1.3670722E0,4.1570663E1,6.6101985E0,8.718828E1,3.0783802E1,1.0861531E2,5.1479996E1,1.8802002E1,1.1238943E0,6.5878735E0,1.4047058E1,7.2886024E0,2.0425821E1,1.124693E0,1.0832154E0,6.794831E0,3.8786263E1,1.6555733E1,2.3878896E0,3.3498028E1,7.784278E1,2.1974903E1,4.9808918E1,1.79101E1,3.966641E0,3.2551095E0,1.6650227E0,1.052383E1,1.4030548E1,3.2985157E1,2.267256E1,6.8910294E0,1.0692272E0,4.696972E1,7.0766993E0,1.605358E1,2.5517082E1,1.011179E0,8.61771E1,1.806563E1,1.2718172E1,9.956244E1,9.052874E0,2.1243698E1,3.0236298E1,1.7721596E1,1.0804064E0,3.3551078E0,3.2327657E0,1.0932723E1,3.1143355E0,5.6408834E0,1.6477189E0,1.7824228E1,2.601593E0,1.1797504E0,5.6150804E0,2.062783E1,1.8158432E1,1.3396826E1,3.1589074E0,1.2673894E0,1.1205003E0,1.1911691E1,2.1586338E1,1.6012892E1,5.9620104E0,4.753609E1,2.2728257E0,1.5481529E0,2.418488E0,1.5110419E0,1.7440677E0,8.617827E0,1.9060038E0,1.1946219E1,2.0843287E0,1.0390481E1,2.2594677E1,1.2674516E1,9.998043E0],"tree_param":{"num_deleted":"0","num_feature":"15","num_nodes":"173","size_leaf_vector":"0"}},{"base_weights":[-5.3171148E-3,4.529854E-1,-2.4072489E-1,1.0297445E0,3.4920132E-1,1.018266E0,-2.8859466E-1,1.6403027E-1,1.0435057E0,8.6050624E-1,2.4245587E-1,1.0505854E0,1.3239329E-1,4.1574043E-1,-3.6554027E-1,9.112964E-1,-6.415713E-1,-7.5461936E-1,3.0434573E-1,6.629341E-1,-9.854027E-1,-2.4477437E-1,-8.9358974E-1,1.0579324E0,5.794876E-1,-1.006499E0,5.0628513E-1,-1.0592784E0,3.3946186E-1,9.157758E-1,-9.603103E-3,-9.5801604E-1,-1.9923885E-1,-9.6373856E-1,1.0522573E0,-5.111623E-1,7.111895E-1,-1.1864831E0,-2.2950956E-1,-1.0998929E0,3.6094785E-1,-1.520546E-1,9.791772E-1,8.2368535E-1,-2.1538605E-1,-1.0974382E0,5.839333E-1,1.0052947E0,-2.2302508E-1,-1.2645201E-1,-1.0037043E0,9.116509E-1,4.179794E-1,6.3369507E-1,2.4457534E-1,-8.49344E-1,5.819154E-1,-1.2018449E-1,1.0184473E0,-4.6314237E-1,6.873328E-1,1.4924616E-1,1.2177666E0,-8.647114E-1,-1.6105068E-1,-7.9228896E-1,4.3866715E-1,-1.0445309E0,-5.517207E-1,2.590222E-1,9.635979E-1,8.358805E-1,9.471653E-2,8.847682E-1,8.899216E-3,3.9696443E-1,-1.897347E-1,2.6070517E-1,1.0322105E0,-8.3185023E-1,3.3938283E-1,-1.0021181E0,1.0753132E0,-1.16388865E-1,-8.232255E-1,8.67829E-1,-2.920932E-1,-1.9539653E-1,-1.058044E0,-1.0313518E0,1.0893193E0,5.319414E-1,-1.0079074E0,9.8029554E-1,-3.617802E-1,7.580992E-1,-2.738769E-1,-1.0892707E0,4.2374608E-1,1.3950779E-1,-6.559564E-1,-9.385483E-1,-2.6440254E-1,5.868258E-1,-1.7277269E-1,-1.0906869E0,-2.3755857E-1,-1.2448581E0,-9.0601884E-2,-2.0973755E-1,-9.894595E-1,-6.264653E-1,-1.0890243E0],"categories":[],"categories_nodes":[],"categories_segments":[],"categories_sizes":[],"default_left":[1,1,1,1,1,1,1,0,0,1,1,0,0,1,1,1,0,1,1,1,0,1,1,0,1,0,0,1,1,1,1,1,1,1,0,0,1,0,0,0,1,1,1,0,1,0,0,1,1,1,1,1,1,1,1,0,0,0,1,1,0,0,0,1,1,0,1,1,1,0,0,0,1,1,1,1,1,0,0,1,1,1,0,1,1,0,0,0,1,0,0,0,0,0,0,0,0,0,0,0,0,0,0,0,0,0,0,0,0,0,0,0,0],"id":6,"left_children":[1,3,5,7,9,11,13,-1,-1,15,17,-1,-1,19,21,23,-1,25,27,29,-1,31,33,-1,35,-1,-1,37,39,41,43,45,47,49,-1,-1,51,-1,-1,-1,53,55,57,-1,59,-1,-1,61,63,65,67,69,71,73,75,-1,-1,-1,77,79,-1,-1,-1,81,83,-1,85,87,89,-1,-1,-1,91,93,95,97,99,-1,-1,101,103,105,-1,107,109,-1,-1,-1,111,-1,-1,-1,-1,-1,-1,-1,-1,-1,-1,-1,-1,-1,-1,-1,-1,-1,-1,-1,-1,-1,-1,-1,-1],"loss_changes":[1.1122043E2,2.0580765E1,4.133884E1,4.5827866E-1,1.605576E1,5.8145714E-1,3.575181E1,0E0,0E0,4.481243E0,1.5528485E1,0E0,0E0,2.3222185E1,3.7579025E1,1.8108215E0,0E0,5.202614E0,1.1571556E1,9.5292E0,0E0,1.5520916E1,1.6021713E1,0E0,2.874323E0,0E0,0E0,3.7374783E-1,7.4797115E0,2.9043808E0,2.970253E0,6.825712E0,1.3289215E1,3.4416428E0,0E0,0E0,5.6022453E-1,0E0,0E0,0E0,7.031204E0,2.104685E0,1.7868538E0,0E0,3.4168842E0,0E0,0E0,1.4573898E0,1.7676403E1,2.6061924E0,1.299263E0,4.415369E-2,1.0487798E0,1.0515213E1,1.0686252E1,0E0,0E0,0E0,1.2018967E-1,3.6757102E0,0E0,0E0,0E0,1.1534536E1,1.20224285E1,0E0,1.4736073E0,8.500519E-1,9.41937E0,0E0,0E0,0E0,3.349489E0,6.051693E0,4.4955077E0,5.198431E0,6.587517E0,0E0,0E0,2.4514103E-1,6.489166E-1,2.256569E0,0E0,1.1091652E1,2.4160938E0,0E0,0E0,0E0,5.2685547E-1,0E0,0E0,0E0,0E0,0E0,0E0,0E0,0E0,0E0,0E0,0E0,0E0,0E0,0E0,0E0,0E0,0E0,0E0,0E0,0E0,0E0,0E0,0E0,0E0],"parents":[2147483647,0,0,1,1,2,2,3,3,4,4,5,5,6,6,9,9,10,10,13,13,14,14,15,15,17,17,18,18,19,19,21,21,22,22,24,24,27,27,28,28,29,29,30,30,31,31,32,32,33,33,36,36,40,40,41,41,42,42,44,44,47,47,48,48,49,49,50,50,51,51,52,52,53,53,54,54,58,58,59,59,63,63,64,64,66,66,67,67,68,68,72,72,73,73,74,74,75,75,76,76,79,79,80,80,81,81,83,83,84,84,88,88],"right_children":[2,4,6,8,10,12,14,-1,-1,16,18,-1,-1,20,22,24,-1,26,28,30,-1,32,34,-1,36,-1,-1,38,40,42,44,46,48,50,-1,-1,52,-1,-1,-1,54,56,58,-1,60,-1,-1,62,64,66,68,70,72,74,76,-1,-1,-1,78,80,-1,-1,-1,82,84,-1,86,88,90,-1,-1,-1,92,94,96,98,100,-1,-1,102,104,106,-1,108,110,-1,-1,-1,112,-1,-1,-1,-1,-1,-1,-1,-1,-1,-1,-1,-1,-1,-1,-1,-1,-1,-1,-1,-1,-1,-1,-1,-1],"split_conditions":[-1.293057E-2,-4.8827484E-2,-7.270661E-1,-4.529081E-1,-1.8320149E0,5.6415312E-2,2.5515607E-1,4.9209084E-2,3.130517E-1,1.295761E-1,5.6415293E-2,3.1517562E-1,3.9717987E-2,5.053284E-2,2.0571604E-2,5.6415293E-2,-1.924714E-1,8.721497E-1,2.0571603E-2,5.6415297E-2,-2.9562083E-1,2.0571603E-2,5.6415435E-2,3.173797E-1,-1.4009261E-1,-3.0194974E-1,1.5188554E-1,-1.3897518E-2,1.4923227E-1,2.0571603E-2,-1.2998661E-1,2.9204357E-1,-4.195531E-1,-3.1753373E-1,3.156772E-1,-1.5334868E-1,-1.3112101E-1,-3.5594496E-1,-6.885287E-2,-3.2996786E-1,6.1743595E-2,-6.962541E-2,2.0571603E-2,2.4710561E-1,2.0571604E-2,-3.2923147E-1,1.7517999E-1,7.308434E-2,1.7586097E-2,-3.9058074E-1,2.551561E-1,-9.037894E-2,-2.1752402E-2,2.3497652E-2,2.293865E-4,-2.548032E-1,1.7457461E-1,-3.605535E-2,8.855069E-4,5.6415312E-2,2.0619985E-1,4.4773847E-2,3.6533E-1,5.6415312E-2,5.64153E-2,-2.376867E-1,-9.161776E-3,-1.2690824E-2,2.6910132E-1,7.7706665E-2,2.8907937E-1,2.5076416E-1,1.7810393E-2,2.0571604E-2,2.0571603E-2,-1.7009217E-1,9.4389305E-2,7.821155E-2,3.0966315E-1,6.0071424E-2,-6.4934775E-2,5.6415305E-2,3.22594E-1,1.4923222E-1,-1.185891E-1,2.603487E-1,-8.762796E-2,-5.861896E-2,2.0571604E-2,-3.0940557E-1,3.2679582E-1,1.5958244E-1,-3.0237222E-1,2.9408866E-1,-1.0853406E-1,2.2742976E-1,-8.216307E-2,-3.267812E-1,1.2712383E-1,4.1852336E-2,-1.9678693E-1,-2.815645E-1,-7.9320766E-2,1.7604774E-1,-5.1831808E-2,-3.2720608E-1,-7.1267575E-2,-3.7345746E-1,-2.7180566E-2,-6.292127E-2,-2.9683787E-1,-1.879396E-1,-3.267073E-1],"split_indices":[1,0,0,11,2,12,2,0,0,8,3,0,0,8,7,3,0,8,6,3,0,6,3,0,14,0,0,1,4,6,11,9,8,13,0,0,11,0,0,0,13,8,7,0,7,0,0,13,9,13,2,14,1,9,9,0,0,0,9,12,0,0,0,12,12,0,1,1,11,0,0,0,14,5,7,14,13,0,0,10,8,3,0,4,14,0,0,0,5,0,0,0,0,0,0,0,0,0,0,0,0,0,0,0,0,0,0,0,0,0,0,0,0],"split_type":[0,0,0,0,0,0,0,0,0,0,0,0,0,0,0,0,0,0,0,0,0,0,0,0,0,0,0,0,0,0,0,0,0,0,0,0,0,0,0,0,0,0,0,0,0,0,0,0,0,0,0,0,0,0,0,0,0,0,0,0,0,0,0,0,0,0,0,0,0,0,0,0,0,0,0,0,0,0,0,0,0,0,0,0,0,0,0,0,0,0,0,0,0,0,0,0,0,0,0,0,0,0,0,0,0,0,0,0,0,0,0,0,0],"sum_hessian":[1.0288773E3,3.488317E2,6.800456E2,5.1836823E1,2.9699487E2,2.416724E1,6.5587836E2,1.0132594E0,5.0823563E1,5.0075344E1,2.4691953E2,2.313718E1,1.0300602E0,6.416151E1,5.9171686E2,4.8817963E1,1.25738E0,1.3776726E1,2.331428E2,5.498735E1,9.174157E0,4.8277005E2,1.0894682E2,3.2338314E1,1.647965E1,1.1651068E1,2.1256583E0,5.1209674E0,2.2802184E2,3.970029E1,1.5287059E1,2.7769276E1,4.5500076E2,1.0564306E2,3.3037617E0,1.4651512E0,1.50145E1,4.0675054E0,1.0534625E0,2.6155176E0,2.2540633E2,2.1466765E0,3.7553616E1,2.432849E0,1.285421E1,2.573098E1,2.0382957E0,8.011947E0,4.4698883E2,5.0025897E0,1.0064047E2,7.664919E0,7.3495803E0,6.608189E1,1.5932443E2,1.0202428E0,1.1264337E0,1.2241112E0,3.6329502E1,1.046813E1,2.3860795E0,1.9316821E0,6.0802646E0,3.8227398E1,4.087614E2,2.1120977E0,2.890492E0,9.110056E1,9.539908E0,1.0064905E0,6.6584287E0,2.5139089E0,4.8356714E0,4.6842285E1,1.9239597E1,1.1800521E2,4.1319225E1,1.0038657E0,3.5325638E1,7.147701E0,3.3204298E0,3.6150417E1,2.0769813E0,3.8403513E2,2.4726292E1,1.7028713E0,1.1876208E0,1.6692444E0,8.943132E1,7.669775E0,1.870134E0,3.8332462E0,1.0024253E0,4.3706505E1,3.135782E0,4.811338E0,1.442826E1,1.386551E0,1.1661866E2,2.4627913E1,1.669131E1,5.465933E0,1.6817676E0,2.1404943E0,1.1799356E0,3.2015125E1,4.135292E0,7.523482E0,3.7651166E2,5.753759E0,1.8972532E1,7.4110847E0,8.202023E1],"tree_param":{"num_deleted":"0","num_feature":"15","num_nodes":"113","size_leaf_vector":"0"}},{"base_weights":[-4.0087267E-3,2.3991857E-1,-3.271687E-1,1.0048972E0,1.6216403E-1,6.694806E-1,-3.7444004E-1,1.6572174E-1,1.0198005E0,7.394002E-1,7.802267E-2,9.0802765E-1,1.9826654E-1,-5.02481E-1,-7.0539825E-2,4.4661632E-1,1.0392293E0,8.295864E-1,-3.9478955E-1,-8.448062E-1,1.1997829E-1,1.06583506E-1,9.7229314E-1,-6.9527453E-1,6.976601E-1,1.6598922E-1,-5.615113E-1,1.8762782E-2,-8.460703E-1,4.2343814E-2,6.090935E-1,1.0354772E0,5.502572E-1,6.098363E-1,-8.6530685E-1,-9.946427E-1,6.501378E-1,3.3566886E-1,-2.7952157E-2,-1.954188E-2,8.727594E-1,-9.264928E-1,5.922947E-1,-1.0306828E0,-4.3413836E-1,8.1017584E-1,-3.9899018E-2,-9.476421E-1,-8.699612E-2,3.5272904E-2,8.440927E-1,-1.0238312E0,-2.6271376E-1,3.70192E-1,-9.406526E-1,-1.2812939E0,1.9667774E-2,8.6670965E-1,-4.4507104E-1,-3.9908984E-1,-1.0663393E0,-2.9330382E-1,-8.1043E-1,9.886246E-1,4.6900257E-2,1.9656348E-1,-2.7385992E-1,7.9678226E-1,-2.937162E-1,6.421242E-2,9.248278E-1,3.1209123E-1,1.0661008E0,-1.2274278E0,-6.965937E-2,6.4788714E-2,-1.6030037E0,4.2517996E-1,-1.0030744E-1,9.543719E-1,-1.0472895E-1,-4.507301E-2,-6.922652E-1,4.0231106E-1,-7.7093655E-1,-1.6301438E-1,-8.6160666E-1,-9.1689414E-1,9.236821E-1,8.997895E-1,-9.961387E-2,-1.2448903E-1,-9.492687E-1,7.206702E-1,-7.488795E-1,1.8434902E-1,1.0013231E0,4.5797086E-1,4.7035243E-2,-5.209994E-1,1.2666215E0,-8.6241946E-2,7.1709925E-1,6.353718E-2,-7.640117E-1,3.066831E-1,-3.5046268E-1,-9.4961804E-1,1.2851037E-1,-1.0377511E0,-3.2463738E-1,1.197113E0,4.5142332E-1,7.470254E-1,-2.587275E-1,5.973341E-1,-4.1712046E-1,-2.4986722E-1,-1.0223769E0,-1.0437611E0,2.4564067E-1,6.6578454E-1,2.1601045E-1,5.1996803E-1,-2.9947746E-1,1.4726557E0,-1.5477853E-2,-6.129596E-1,3.1396994E-1,8.02925E-1,-6.612718E-1,1.771135E-1,-5.054003E-1,-9.117422E-1,4.8455882E-1,1.3639014E0,-5.055274E-1,-5.5506444E-1,5.3324187E-1,-2.4880551E-1,-1.0351443E0,5.965514E-1,-3.9095342E-1,-8.1957465E-1,7.9789734E-1,1.3653536E0,4.9792802E-1,8.0923396E-1,-4.637286E-1,1.432191E-1,8.4593296E-1,8.2656217E-1,-3.7351298E-1,-8.1120455E-1,9.770246E-1,-9.8687106E-1,-2.2982974E-1,-1.1791278E0,-4.406352E-1],"categories":[],"categories_nodes":[],"categories_segments":[],"categories_sizes":[],"default_left":[1,1,1,1,1,1,1,0,1,1,1,1,1,1,1,1,0,1,1,1,1,0,0,0,1,1,1,1,1,0,0,0,1,0,0,1,0,1,1,0,0,0,1,1,1,1,1,0,0,1,1,0,0,1,1,1,1,1,1,1,0,1,1,0,0,1,1,0,1,0,1,1,1,0,0,0,0,1,1,0,0,0,0,0,0,1,1,1,0,1,1,1,1,0,1,0,0,1,1,0,1,1,1,1,1,1,1,1,1,0,1,1,1,1,1,1,1,0,1,0,0,0,0,0,0,0,0,0,0,0,0,0,0,0,0,0,0,0,0,0,0,0,0,0,0,0,0,0,0,0,0,0,0,0,0,0,0,0,0],"id":7,"left_children":[1,3,5,7,9,11,13,-1,15,17,19,21,23,25,27,29,-1,31,33,35,37,-1,-1,-1,39,41,43,45,47,-1,-1,-1,49,-1,-1,51,-1,53,55,-1,-1,-1,57,59,61,63,65,-1,-1,67,69,-1,-1,71,73,75,77,79,81,83,-1,85,87,-1,-1,89,91,-1,93,-1,95,97,99,-1,-1,-1,-1,101,103,-1,-1,-1,-1,-1,-1,105,107,109,-1,111,113,115,117,-1,119,-1,-1,121,123,-1,125,127,129,131,133,135,137,139,141,-1,143,145,147,149,151,153,155,-1,157,-1,-1,-1,-1,-1,-1,-1,-1,-1,-1,-1,-1,-1,-1,-1,-1,-1,-1,-1,-1,-1,-1,-1,-1,-1,-1,-1,-1,-1,-1,-1,-1,-1,-1,-1,-1,-1,-1,-1,-1],"loss_changes":[7.302053E1,3.1236156E1,1.9022747E1,4.3771362E-1,2.3273884E1,1.8883982E0,1.4791714E1,0E0,6.451416E-2,6.5667E0,1.6377552E1,5.11199E-1,3.8157043E0,1.0665688E1,7.9193125E0,1.9162202E-1,0E0,2.6983223E0,2.9717402E0,4.769417E0,1.28671665E1,0E0,0E0,0E0,6.810322E-1,1.1033257E1,1.4278366E1,4.828671E0,8.277569E-1,0E0,0E0,0E0,3.9418678E0,0E0,0E0,9.684944E-2,0E0,7.575247E0,1.4346817E1,0E0,0E0,0E0,5.169075E0,7.4292755E-1,1.0124397E1,9.3107367E-1,5.4276743E0,0E0,0E0,2.8843017E0,9.900751E-1,0E0,0E0,6.153307E0,1.063982E0,3.914012E0,1.1337495E1,1.2604418E0,3.8168108E-1,1.6126635E0,0E0,1.0510509E1,1.0573433E1,0E0,0E0,1.02727995E1,4.84987E0,0E0,4.2878275E0,0E0,6.667185E-1,5.7578325E0,4.462001E0,0E0,0E0,0E0,0E0,8.003621E0,1.9618517E1,0E0,0E0,0E0,0E0,0E0,0E0,1.0518887E1,2.4395275E0,3.2519035E0,0E0,1.4044304E0,4.9489775E0,9.010204E0,1.9282007E-1,0E0,2.043548E0,0E0,0E0,4.6980667E0,9.033734E0,0E0,2.9016705E0,4.4554157E0,4.5499077E0,9.47562E0,7.0280743E0,3.011171E1,1.5662458E1,1.2134762E0,9.752097E-1,0E0,6.183425E0,2.8078365E-1,2.8057222E0,2.2774243E-1,4.103364E0,7.4111543E0,2.9852324E0,0E0,1.7474318E-1,0E0,0E0,0E0,0E0,0E0,0E0,0E0,0E0,0E0,0E0,0E0,0E0,0E0,0E0,0E0,0E0,0E0,0E0,0E0,0E0,0E0,0E0,0E0,0E0,0E0,0E0,0E0,0E0,0E0,0E0,0E0,0E0,0E0,0E0,0E0,0E0,0E0,0E0,0E0,0E0],"parents":[2147483647,0,0,1,1,2,2,3,3,4,4,5,5,6,6,8,8,9,9,10,10,11,11,12,12,13,13,14,14,15,15,17,17,18,18,19,19,20,20,24,24,25,25,26,26,27,27,28,28,32,32,35,35,37,37,38,38,42,42,43,43,44,44,45,45,46,46,49,49,50,50,53,53,54,54,55,55,56,56,57,57,58,58,59,59,61,61,62,62,65,65,66,66,68,68,70,70,71,71,72,72,77,77,78,78,85,85,86,86,87,87,89,89,90,90,91,91,92,92,94,94,97,97,98,98,100,100,101,101,102,102,103,103,104,104,105,105,106,106,107,107,108,108,110,110,111,111,112,112,113,113,114,114,115,115,116,116,118,118],"right_children":[2,4,6,8,10,12,14,-1,16,18,20,22,24,26,28,30,-1,32,34,36,38,-1,-1,-1,40,42,44,46,48,-1,-1,-1,50,-1,-1,52,-1,54,56,-1,-1,-1,58,60,62,64,66,-1,-1,68,70,-1,-1,72,74,76,78,80,82,84,-1,86,88,-1,-1,90,92,-1,94,-1,96,98,100,-1,-1,-1,-1,102,104,-1,-1,-1,-1,-1,-1,106,108,110,-1,112,114,116,118,-1,120,-1,-1,122,124,-1,126,128,130,132,134,136,138,140,142,-1,144,146,148,150,152,154,156,-1,158,-1,-1,-1,-1,-1,-1,-1,-1,-1,-1,-1,-1,-1,-1,-1,-1,-1,-1,-1,-1,-1,-1,-1,-1,-1,-1,-1,-1,-1,-1,-1,-1,-1,-1,-1,-1,-1,-1,-1,-1],"split_conditions":[-1.1864626E-2,-4.8827484E-2,1.2951523E-1,-4.2643595E-1,2.5515425E-1,-7.270661E-1,2.0571604E-2,4.9716525E-2,2.0571603E-2,1.0400661E-2,5.6415293E-2,2.0571603E-2,5.64153E-2,-1.8320059E0,2.0571604E-2,6.007146E-2,3.117688E-1,-1.3471904E-1,-3.919062E-1,1.2516141E0,-1.297325E-1,3.1975053E-2,2.9168797E-1,-2.0858237E-1,7.5495794E-2,-6.1680205E-2,3.2076858E-2,-1.5192568E-1,5.6415297E-2,1.2703145E-2,1.8272805E-1,3.1064317E-1,-1.2707675E-1,1.8295088E-1,-2.5959206E-1,9.7179145E-2,1.9504134E-1,2.0571604E-2,-1.2968889E-1,-5.8625643E-3,2.6182783E-1,-2.7794784E-1,5.64153E-2,-1.470958E-1,2.0571604E-2,-8.876339E-2,6.3129347E-3,-2.8429264E-1,-2.6098838E-2,-2.1752402E-2,-4.8858166E-2,-3.0714938E-1,-7.8814134E-2,-1.207458E-2,-1.3453795E-1,-8.198007E-2,1.340466E-2,-1.0719603E-2,-1.0615583E-1,-1.2005048E-1,-3.199018E-1,5.64153E-2,5.6415435E-2,2.9658738E-1,1.4070078E-2,-1.1593705E-2,-2.428839E-2,2.3903468E-1,5.6415293E-2,1.9263726E-2,2.5434962E-2,-1.3784312E-2,-1.6839334E-1,-3.6822838E-1,-2.0897811E-2,1.9436615E-2,-4.8090115E-1,5.6415297E-2,3.1888172E-2,2.863116E-1,-3.141869E-2,-1.3521903E-2,-2.0767957E-1,1.2069332E-1,-2.3128097E-1,-1.1875678E-1,3.5025214E-4,2.551561E-1,2.7710465E-1,4.5342274E-2,-1.8320049E0,-1.0780937E-2,4.1867062E-2,2.1620108E-1,-1.2539319E-2,5.5304706E-2,3.0039695E-1,2.0571606E-2,-8.039955E-2,-1.5629981E-1,5.64153E-2,-1.1493586E-2,5.64153E-2,-9.59938E-2,4.6742942E-2,1.5644911E-1,2.363948E-2,-1.4894629E-1,-7.98427E-2,-3.1132534E-1,6.810247E-2,-1.424658E-3,5.6415297E-2,5.387296E-3,-4.1946614E-1,2.980139E-2,4.81404E-2,-7.4960165E-2,2.551561E-1,-3.1312835E-1,7.36922E-2,1.9973537E-1,6.480314E-2,1.5599042E-1,-8.984324E-2,4.4179672E-1,-4.643356E-3,-1.838879E-1,9.4190985E-2,2.4087751E-1,-1.9838156E-1,5.3134054E-2,-1.5162009E-1,-2.7352268E-1,1.4536765E-1,4.0917042E-1,-1.5165822E-1,-1.6651934E-1,1.5997256E-1,-7.464165E-2,-3.105433E-1,1.7896543E-1,-1.17286034E-1,-2.4587241E-1,2.3936921E-1,4.096061E-1,1.4937842E-1,2.427702E-1,-1.3911858E-1,4.2965733E-2,2.537799E-1,2.4796866E-1,-1.120539E-1,-2.4336137E-1,2.931074E-1,-2.9606134E-1,-6.8948925E-2,-3.5373837E-1,-1.3219057E-1],"split_indices":[1,0,0,11,2,0,6,0,6,8,3,6,12,2,7,10,0,11,11,8,11,0,0,0,9,13,9,14,3,0,0,0,11,0,0,8,0,7,11,0,0,0,3,11,7,13,8,0,0,1,9,0,0,1,11,14,13,14,14,14,0,12,3,0,0,13,13,0,3,0,13,1,11,0,0,0,0,3,9,0,0,0,0,0,0,13,13,2,0,9,2,1,9,0,1,0,0,6,8,0,3,14,12,11,9,8,14,14,14,0,11,8,3,13,8,9,8,0,2,0,0,0,0,0,0,0,0,0,0,0,0,0,0,0,0,0,0,0,0,0,0,0,0,0,0,0,0,0,0,0,0,0,0,0,0,0,0,0,0],"split_type":[0,0,0,0,0,0,0,0,0,0,0,0,0,0,0,0,0,0,0,0,0,0,0,0,0,0,0,0,0,0,0,0,0,0,0,0,0,0,0,0,0,0,0,0,0,0,0,0,0,0,0,0,0,0,0,0,0,0,0,0,0,0,0,0,0,0,0,0,0,0,0,0,0,0,0,0,0,0,0,0,0,0,0,0,0,0,0,0,0,0,0,0,0,0,0,0,0,0,0,0,0,0,0,0,0,0,0,0,0,0,0,0,0,0,0,0,0,0,0,0,0,0,0,0,0,0,0,0,0,0,0,0,0,0,0,0,0,0,0,0,0,0,0,0,0,0,0,0,0,0,0,0,0,0,0,0,0,0,0],"sum_hessian":[9.2433704E2,5.2688885E2,3.9744818E2,4.7513077E1,4.7937576E2,1.7401407E1,3.8004675E2,1.0405823E0,4.6472492E1,5.999609E1,4.1937967E2,1.0937433E1,6.463974E0,2.6692917E2,1.13117584E2,2.3100367E0,4.4162457E1,5.5825634E1,4.170455E0,1.7405415E1,4.0197424E2,1.0092978E0,9.928136E0,2.1768258E0,4.2871485E0,2.1511927E1,2.4541725E2,1.023121E2,1.0805482E1,1.0236604E0,1.2863764E0,3.0579058E1,2.5246578E1,1.2357731E0,2.934682E0,1.6123995E1,1.2814198E0,1.6301726E2,2.38957E2,1.0156033E0,3.271545E0,5.7088003E0,1.5803125E1,5.0886723E1,1.9453053E2,6.176289E0,9.613582E1,9.311128E0,1.4943544E0,9.578721E0,1.5667856E1,1.5122113E1,1.0018809E0,1.594152E2,3.6020498E0,7.7984247E0,2.3115857E2,1.262733E1,3.175796E0,3.370843E0,4.751588E1,1.428468E2,5.168373E1,4.76663E0,1.4096589E0,4.789177E1,4.8244045E1,2.4608119E0,7.1179094E0,1.6382498E0,1.4029607E1,1.4846822E2,1.0946988E1,2.4019625E0,1.2000873E0,1.6583247E0,6.1401E0,5.219555E1,1.7896303E2,1.1598284E1,1.029046E0,1.6645991E0,1.511197E0,1.0423738E0,2.3284693E0,1.1725232E2,2.5594477E1,4.9138206E1,2.5455277E0,1.3588963E1,3.4302807E1,4.0476704E1,7.7673445E0,2.0239494E0,5.09396E0,1.6329187E0,1.23966875E1,9.5293434E1,5.317479E1,1.0486605E0,9.898328E0,1.9222908E1,3.297264E1,1.4425574E2,3.470728E1,3.3264313E1,8.3988014E1,2.3542683E1,2.0517938E0,4.0185642E1,8.952564E0,7.1666203E0,6.422343E0,4.8422656E0,2.946054E1,1.1375613E1,2.910109E1,1.1531792E0,6.6141653E0,3.8908079E0,1.2031521E0,5.0321716E1,4.4971714E1,2.2273958E1,3.0900831E1,8.399846E0,1.4984814E0,8.07019E0,1.1152718E1,3.1432928E1,1.5397146E0,1.2082442E2,2.3431324E1,3.127644E1,3.4308398E0,1.4157234E1,1.9107077E1,6.850023E1,1.5487779E1,2.9858122E0,2.055687E1,1.001266E0,1.0505278E0,6.400441E0,2.552123E0,5.0086308E0,2.1579893E0,4.700332E0,1.7220101E0,1.026127E0,3.8161387E0,2.2247403E0,2.72358E1,2.174044E0,9.20157E0,6.1433544E0,2.2957735E1,4.4013166E0,2.2128484E0],"tree_param":{"num_deleted":"0","num_feature":"15","num_nodes":"159","size_leaf_vector":"0"}},{"base_weights":[-4.3966686E-3,9.6853435E-1,-6.1433665E-2,3.4894574E-1,1.0050129E0,9.330773E-2,-3.820667E-1,7.113364E-1,-3.523513E-1,1.427706E-1,1.0223565E0,6.55031E-1,2.4520768E-2,-1.4124391E-2,-5.264186E-1,-3.426435E-1,7.6092434E-1,-8.168207E-1,5.405143E-2,-2.5282E-1,4.3907896E-1,-5.6958646E-1,5.5757046E-1,5.739213E-1,-8.037079E-1,1.0129561E0,4.7304237E-1,-9.5994353E-1,5.9352124E-1,-1.0722238E-1,2.1322279E-1,-5.637241E-1,5.224209E-1,7.5552154E-1,-4.366769E-1,1.4310195E-1,-6.2246156E-1,-5.14357E-1,9.476809E-1,2.9313603E-2,7.1709764E-1,-2.6674575E-1,-9.9406093E-1,2.0318258E-1,-3.5817793E-1,-7.402868E-2,3.781523E-1,-7.0566094E-1,8.9963204E-1,8.989894E-1,-6.2063277E-1,-1.0929237E-1,1.0326658E0,6.8888724E-1,-1.0381091E0,5.0755244E-1,-7.928643E-1,-4.152069E-1,-8.941615E-1,7.3426557E-1,-2.277271E-1,8.2921E-1,8.87519E-3,2.9052672E-1,-1.1362599E0,5.268557E-1,-5.9044504E-1,-6.6625106E-1,5.203654E-2,-9.903687E-1,4.049382E-1,-8.03376E-1,5.722551E-1,1.5758717E0,-3.074804E-1,1.6959198E-3,-8.370031E-1,3.4123433E-1,-4.8557916E-1,1.1909102E0,-3.9525717E-1,-2.347289E-1,1.3374002E0,-1.2030443E0,-1.8878864E-1,7.28842E-1,-6.114876E-1,6.346708E-1,-6.275596E-1,-5.142613E-1,-1.0492287E0,-1.2236462E0,1.4751063E-1,9.3741214E-1,1.8940127E-1,-5.2830017E-1,4.676596E-1,-4.421341E-1,4.2622027E-1,-7.944136E-1,6.1615133E-1,2.2494778E-1,-8.176787E-1,1.0097856E-1,-1.5204741E0,4.88847E-1,-9.581806E-2,4.2882562E-1,-1.0244781E0,-9.4046E-1,-7.811015E-2,5.2825487E-1,2.072161E0,6.76767E-1,-9.6294105E-1,7.5183976E-1,-2.5415108E-1,-8.2628325E-2,-6.462975E-1,1.35044E0,-3.9175135E-1,-1.0854185E-1,8.790234E-1,-5.9572446E-1,1.0920806E0,-4.314004E-1,-1.0039151E0,-9.887222E-1,1.8768032E-1,-6.3939047E-1,4.417932E-1,2.5677305E-1,9.7486824E-1,-3.1193832E-1,5.455188E-1,-7.76321E-1,4.356732E-1,8.0526644E-1,2.496693E-1,7.5239474E-1,-3.6304074E-3,7.887745E-1,-3.6463857E-1,-1.1006308E0,-5.801689E-1,8.965246E-1,-1.2236689E0,-1.7054268E0,-6.2396365E-1,6.60868E-1,-1.0368185E0,-2.3790318E-1,5.464133E-1,6.348644E-1,2.8945145E-1,-1.08647265E-1,-1.0132462E0,-6.5222603E-1,7.25786E-1,7.2930324E-1,-6.7884056E-3,3.4543362E-1,1.4528306E0,-8.455928E-1,2.0141253E-1,1.412562E0,-8.3956486E-1,8.987487E-1,-6.8987036E-1,-4.940978E-1,-1.0783939E0,-4.323135E-2,-1.0639561E0,-7.55636E-1,8.0858976E-1],"categories":[],"categories_nodes":[],"categories_segments":[],"categories_sizes":[],"default_left":[1,1,1,1,1,1,1,0,0,0,0,1,1,1,1,1,1,1,1,1,1,1,1,0,0,0,1,1,0,1,1,1,1,1,1,1,1,0,0,1,1,0,0,1,1,1,1,1,0,1,1,1,1,1,1,1,0,1,1,0,1,1,1,1,0,1,1,1,1,0,1,1,0,1,1,0,0,1,1,1,0,0,0,0,0,1,0,1,1,1,0,0,1,1,1,0,0,1,1,0,1,1,1,1,1,1,1,1,0,1,1,1,0,0,0,0,0,0,0,1,0,0,0,1,1,1,1,1,1,0,0,0,0,0,0,0,0,0,0,0,0,0,0,0,0,0,0,0,0,0,0,0,0,0,0,0,0,0,0,0,0,0,0,0,0,0,0,0,0,0,0,0,0,0,0],"id":8,"left_children":[1,3,5,7,9,11,13,-1,-1,-1,-1,15,17,19,21,23,25,27,29,31,33,35,37,-1,-1,-1,39,41,-1,43,45,47,49,51,53,55,57,-1,-1,59,61,-1,-1,63,65,67,69,71,-1,73,75,77,79,81,83,85,-1,87,89,-1,91,93,95,97,-1,99,101,103,105,-1,107,109,-1,111,113,-1,-1,115,117,119,-1,-1,-1,-1,-1,121,-1,123,125,127,-1,-1,129,131,133,-1,-1,135,137,-1,139,141,143,145,147,149,151,153,-1,155,157,159,-1,-1,-1,-1,-1,-1,-1,161,-1,-1,-1,163,165,167,169,171,173,-1,-1,-1,-1,-1,-1,-1,-1,-1,-1,-1,-1,-1,-1,-1,-1,-1,-1,-1,-1,-1,-1,-1,-1,-1,-1,-1,-1,-1,-1,-1,-1,-1,-1,-1,-1,-1,-1,-1,-1,-1,-1,-1,-1,-1,-1],"loss_changes":[4.6252625E1,6.925087E-1,3.909553E1,1.2921937E0,4.9793625E-1,2.0532139E1,1.3613956E1,0E0,0E0,0E0,0E0,6.3860035E0,1.1841163E1,8.039525E0,8.935444E0,3.103701E0,3.3463554E0,3.8322449E0,1.1822284E1,1.2018387E1,7.438214E0,6.7820206E0,3.6482244E0,0E0,0E0,0E0,2.8475318E0,9.089661E-2,0E0,1.791021E1,1.10036545E1,7.945853E0,6.7745295E0,4.716628E0,5.752965E0,4.8641825E0,8.949875E0,0E0,0E0,2.0593052E0,1.3461447E0,0E0,0E0,1.2380968E1,2.6413513E1,6.4057546E0,5.801855E0,4.5364723E0,0E0,9.689691E0,5.629977E-1,1.1092749E0,3.7792702E0,2.226339E0,5.081816E-1,2.9279304E0,0E0,2.174924E1,3.628971E0,0E0,3.3253024E0,8.405256E-1,1.0703319E0,9.881252E0,0E0,3.666214E0,1.8907738E1,1.0016855E1,4.6508417E0,0E0,5.397705E0,2.9832058E0,0E0,2.7444744E0,3.8050573E0,0E0,0E0,9.539154E-1,1.6973102E-1,3.9200153E0,0E0,0E0,0E0,0E0,0E0,1.2052736E0,0E0,9.997941E0,5.4846992E0,7.6698804E0,0E0,0E0,1.9045451E0,6.389809E-2,7.7371174E-1,0E0,0E0,4.951496E0,5.3379917E0,0E0,2.179965E0,7.8696747E0,4.6870613E0,1.044046E1,1.2694168E-1,5.45946E0,5.066251E0,3.9380035E0,0E0,1.4499168E0,3.2323456E0,4.0466213E-1,0E0,0E0,0E0,0E0,0E0,0E0,0E0,7.767582E-1,0E0,0E0,0E0,1.1957282E0,8.899787E0,1.9339443E1,4.813938E-1,9.191618E-1,6.411869E0,0E0,0E0,0E0,0E0,0E0,0E0,0E0,0E0,0E0,0E0,0E0,0E0,0E0,0E0,0E0,0E0,0E0,0E0,0E0,0E0,0E0,0E0,0E0,0E0,0E0,0E0,0E0,0E0,0E0,0E0,0E0,0E0,0E0,0E0,0E0,0E0,0E0,0E0,0E0,0E0,0E0,0E0,0E0,0E0,0E0,0E0],"parents":[2147483647,0,0,1,1,2,2,3,3,4,4,5,5,6,6,11,11,12,12,13,13,14,14,15,15,16,16,17,17,18,18,19,19,20,20,21,21,22,22,26,26,27,27,29,29,30,30,31,31,32,32,33,33,34,34,35,35,36,36,39,39,40,40,43,43,44,44,45,45,46,46,47,47,49,49,50,50,51,51,52,52,53,53,54,54,55,55,57,57,58,58,60,60,61,61,62,62,63,63,65,65,66,66,67,67,68,68,70,70,71,71,73,73,74,74,77,77,78,78,79,79,85,85,87,87,88,88,89,89,92,92,93,93,94,94,97,97,98,98,100,100,101,101,102,102,103,103,104,104,105,105,106,106,107,107,109,109,110,110,111,111,119,119,123,123,124,124,125,125,126,126,127,127,128,128],"right_children":[2,4,6,8,10,12,14,-1,-1,-1,-1,16,18,20,22,24,26,28,30,32,34,36,38,-1,-1,-1,40,42,-1,44,46,48,50,52,54,56,58,-1,-1,60,62,-1,-1,64,66,68,70,72,-1,74,76,78,80,82,84,86,-1,88,90,-1,92,94,96,98,-1,100,102,104,106,-1,108,110,-1,112,114,-1,-1,116,118,120,-1,-1,-1,-1,-1,122,-1,124,126,128,-1,-1,130,132,134,-1,-1,136,138,-1,140,142,144,146,148,150,152,154,-1,156,158,160,-1,-1,-1,-1,-1,-1,-1,162,-1,-1,-1,164,166,168,170,172,174,-1,-1,-1,-1,-1,-1,-1,-1,-1,-1,-1,-1,-1,-1,-1,-1,-1,-1,-1,-1,-1,-1,-1,-1,-1,-1,-1,-1,-1,-1,-1,-1,-1,-1,-1,-1,-1,-1,-1,-1,-1,-1,-1,-1,-1,-1],"split_conditions":[-4.8827484E-2,2.0571603E-2,-1.1240857E-2,-3.7213847E-2,-4.2643595E-1,2.551542E-1,-1.06918216E-1,2.1340092E-1,-1.05705395E-1,4.2831182E-2,3.0670696E-1,-8.912218E-3,5.6415293E-2,-1.1891376E-1,6.332452E-1,-1.5001109E-1,-1.3471904E-1,1.2516141E0,-5.6305308E-2,2.0571606E-2,2.551561E-1,-1.832005E0,5.64153E-2,1.721764E-1,-2.4111238E-1,3.0388686E-1,-1.2707675E-1,-3.8073748E-1,1.7805637E-1,-1.1801323E-1,2.0571604E-2,5.6415476E-2,-7.03731E-3,4.443292E-2,2.5893236E-3,5.0881274E-2,-5.4546863E-2,-1.543071E-1,2.843043E-1,-2.1752402E-2,5.6415312E-2,-8.002373E-2,-2.9821828E-1,2.0571604E-2,-1.4929736E-2,-1.6732825E-1,-3.2758656E0,2.0571608E-2,2.6988962E-1,-1.0498103E-1,-5.8480445E-3,-1.0869876E-2,9.2391685E-2,-5.5349125E-3,-1.1104014E-1,5.64153E-2,-2.3785931E-1,-1.0127645E-2,-1.2475307E-1,2.2027968E-1,2.0571603E-2,1.7322227E-1,5.8840305E-2,-1.5415639E-1,-3.4087798E-1,2.0571593E-2,-9.834858E-3,-9.333986E-2,9.889339E-3,-2.9711062E-1,2.0571614E-2,-6.174044E-3,1.7167653E-1,-1.218684E-1,-1.39133E-1,5.0877593E-4,-2.5110096E-1,2.2461952E-4,1.5057099E-2,2.0571604E-2,-1.1857716E-1,-7.041867E-2,4.0122008E-1,-3.609133E-1,-5.6636594E-2,-1.7889914E-1,-1.8344629E-1,3.8567398E-2,1.6794357E-1,-3.9939553E-2,-3.147686E-1,-3.6709386E-1,2.0571603E-2,4.1531157E-3,5.6415297E-2,-1.5849006E-1,1.4029789E-1,-1.2246741E-1,-1.3483521E-1,-2.3832409E-1,5.6415297E-2,-9.692012E-2,3.523632E-2,4.4651616E-1,-1.8707255E-1,1.997231E-1,-1.1488682E-2,2.6875842E-2,-3.0734342E-1,-1.8320049E0,-1.23928264E-1,-8.697627E-3,6.216483E-1,2.0303011E-1,-2.8888232E-1,2.2555193E-1,-7.624532E-2,-2.4788499E-2,-1.9388926E-1,-1.0835571E-2,-1.17525406E-1,-3.2562554E-2,2.63707E-1,-1.0007144E-1,3.351463E-1,-1.5377958E-1,-8.592088E-3,6.3819317E-3,5.6415297E-2,-1.9181715E-1,1.3253796E-1,7.703192E-2,2.9246047E-1,-9.35815E-2,1.6365565E-1,-2.3289631E-1,1.3070197E-1,2.4157993E-1,7.490079E-2,2.2571842E-1,-1.0891223E-3,2.3663236E-1,-1.0939158E-1,-3.3018923E-1,-1.7405067E-1,2.689574E-1,-3.671007E-1,-5.116281E-1,-1.871891E-1,1.9826041E-1,-3.1104556E-1,-7.137096E-2,1.63924E-1,1.9045933E-1,8.683544E-2,-3.259418E-2,-3.0397385E-1,-1.9566782E-1,2.177358E-1,2.1879098E-1,-2.0365217E-3,1.0363009E-1,4.358492E-1,-2.5367785E-1,6.042376E-2,4.237686E-1,-2.5186947E-1,2.6962462E-1,-2.0696111E-1,-1.4822935E-1,-3.235182E-1,-1.2969405E-2,-3.1918687E-1,-2.266908E-1,2.4257694E-1],"split_indices":[0,6,1,9,11,2,14,0,0,0,0,13,3,14,14,11,11,8,14,5,2,2,12,0,0,0,11,13,0,14,6,3,1,9,8,8,13,0,0,1,3,0,0,7,9,8,4,6,0,13,1,1,9,8,14,3,0,1,11,0,7,13,13,14,0,7,13,9,9,0,6,13,0,11,11,0,0,13,8,7,0,0,0,0,0,11,0,9,8,14,0,0,6,13,12,0,0,11,11,0,12,14,13,13,8,13,1,13,0,2,14,1,0,0,0,0,0,0,0,1,0,0,0,13,11,13,1,9,3,0,0,0,0,0,0,0,0,0,0,0,0,0,0,0,0,0,0,0,0,0,0,0,0,0,0,0,0,0,0,0,0,0,0,0,0,0,0,0,0,0,0,0,0,0,0],"split_type":[0,0,0,0,0,0,0,0,0,0,0,0,0,0,0,0,0,0,0,0,0,0,0,0,0,0,0,0,0,0,0,0,0,0,0,0,0,0,0,0,0,0,0,0,0,0,0,0,0,0,0,0,0,0,0,0,0,0,0,0,0,0,0,0,0,0,0,0,0,0,0,0,0,0,0,0,0,0,0,0,0,0,0,0,0,0,0,0,0,0,0,0,0,0,0,0,0,0,0,0,0,0,0,0,0,0,0,0,0,0,0,0,0,0,0,0,0,0,0,0,0,0,0,0,0,0,0,0,0,0,0,0,0,0,0,0,0,0,0,0,0,0,0,0,0,0,0,0,0,0,0,0,0,0,0,0,0,0,0,0,0,0,0,0,0,0,0,0,0,0,0,0,0,0,0],"sum_hessian":[8.314127E2,4.5156525E1,7.8625616E2,3.0982745E0,4.205825E1,5.307964E2,2.5545981E2,2.033286E0,1.0649884E0,1.0113497E0,4.10469E1,5.6978638E1,4.7381772E2,7.2291664E1,1.8316815E2,5.252869E0,5.172577E1,1.5162789E1,4.5865494E2,4.7641666E1,2.4649998E1,1.7660957E2,6.558584E0,1.6760997E0,3.5767694E0,2.6237217E1,2.5488554E1,1.4055758E1,1.1070309E0,2.2798492E2,2.3067001E2,3.4199203E1,1.3442462E1,1.8208063E1,6.4419346E0,1.2080008E1,1.6452956E2,1.6650156E0,4.893569E0,9.441909E0,1.6046644E1,1.0730138E0,1.2982744E1,1.0200548E2,1.25979454E2,8.433611E1,1.463339E2,3.164738E1,2.5518217E0,1.027198E1,3.1704812E0,4.5659323E0,1.3642131E1,2.1927793E0,4.249155E0,9.023956E0,3.0560517E0,9.476806E1,6.9761505E1,2.0267725E0,7.415137E0,1.3706106E1,2.3405387E0,9.649613E1,5.5093417E0,2.5925238E1,1.00054214E2,1.404963E1,7.028648E1,2.1185932E0,1.442153E2,2.9744343E1,1.9030377E0,6.384065E0,3.8879154E0,1.0738803E0,2.0966008E0,2.1203601E0,2.445572E0,1.2430552E1,1.2115793E0,1.1677284E0,1.0250508E0,3.2094083E0,1.0397469E0,7.8252215E0,1.1987346E0,1.5608816E1,7.915924E1,2.1472443E1,4.828906E1,1.4105175E0,6.004619E0,1.1325601E1,2.3805048E0,1.0083508E0,1.3321878E0,1.4726073E1,8.177006E1,1.141304E0,2.4783934E1,2.1808346E1,7.8245865E1,7.86625E0,6.18338E0,1.7191378E1,5.3095108E1,1.4253339E2,1.6819152E0,2.476646E1,4.977884E0,2.7157724E0,3.6682928E0,1.5411642E0,2.3467512E0,1.0994009E0,1.0209593E0,1.1290399E0,1.316532E0,1.1425604E1,1.0049481E0,1.2321535E0,6.593068E0,4.148169E0,1.1460648E1,5.3448025E1,2.5711216E1,1.2568514E1,8.903929E0,1.315167E0,4.689452E0,1.0004967E0,1.0325105E1,1.0401788E0,1.3403261E0,1.07493515E1,3.976722E0,2.4852283E1,5.6917774E1,2.0142223E1,4.6417117E0,1.0975014E1,1.0833331E1,3.4048656E1,4.4197212E1,5.1165805E0,2.7496696E0,4.3779006E0,1.8054793E0,1.5958835E1,1.2325424E0,4.399204E1,9.103068E0,5.6077732E1,8.645565E1,2.1933453E0,2.2573114E1,3.0140388E0,1.963845E0,1.7101209E0,1.0056514E0,1.4608195E0,9.964785E0,3.1119359E0,1.0362334E0,1.0060268E1,1.4003786E0,